[[ 1.65702170e-01  9.65336104e-02  5.87082221e-01 -1.47112876e-01
  -1.05355446e-01  2.15893999e-01  3.38490881e-01  1.30065088e-02
   7.89292476e-02  0.00000000e+00  1.03127405e-01  8.92359727e-02
   0.00000000e+00 -2.43799972e-03 -9.63460668e-02  1.78618554e-02
   1.95749199e-02  4.49936357e-02 -6.45854880e-02 -7.00995546e-02
  -9.14666793e-02  3.90895990e-02  1.34504540e-01  3.56951733e-03
   0.00000000e+00  1.70423611e-02 -3.60431078e-02  3.63431702e-02
   0.00000000e+00  0.00000000e+00  7.89292476e-02 -2.30257389e-01
   7.57865956e-03 -6.01213373e-03  3.29302279e-03 -9.20935292e-02
  -6.98404896e-04  4.74080670e-02  2.88752936e-01  6.59210449e-02
  -5.21990652e-02 -1.30549814e-01  8.71796258e-02  2.39381955e-02
   8.32383295e-03  7.71807875e-03 -1.21818484e-02  2.20678212e-02
   1.07847876e-02  3.32488723e-02  3.62634153e-03  4.19581940e-03
   1.50901643e-02  1.07780229e-01 -1.57028512e-02  1.15946618e-02
  -1.37537057e-02  1.82622602e-01  4.24742251e-03  1.65647010e-02
   6.12798123e-03 -1.04153824e-02  1.36087060e-02  1.52178606e-02
   0.00000000e+00  3.05488594e-01  1.48688121e-01 -6.42024829e-02
   5.49526916e-01  1.71983894e-01 -2.18172520e-01  8.33821604e-02
   2.49049503e-01  6.83793766e-02  2.45509597e-01  0.00000000e+00
   3.28353083e-02  6.14112439e-03  6.82551034e-04 -2.02889458e-02
   4.28016065e-02  2.46259726e-03  5.88659591e-02  3.26678403e-03
   3.16766087e-02  0.00000000e+00  3.20592725e-04  0.00000000e+00
   0.00000000e+00  0.00000000e+00  0.00000000e+00  1.53987865e-01
   7.54689109e-02  3.92676751e-02  0.00000000e+00  2.91933487e-02
   2.16316248e-01  3.92419714e-02  4.57900878e-02 -9.50653601e-02
   0.00000000e+00  1.68361829e-02 -3.83596053e-03  1.31969133e-01
   3.31010968e-03 -2.37644567e-03 -1.77997330e-04 -8.93008219e-02
  -1.68850393e-02 -1.43776628e-01  2.08925839e-02  5.96139353e-01
   4.00157965e-02  9.32685786e-02  1.27984413e-02  2.50926783e-02
   5.16927331e-03 -1.49836701e-02  2.23708123e-01  1.82971364e-02
  -2.14619359e-03 -9.10589201e-03  4.53352274e-02  5.34624598e-03
   3.28194770e-02 -1.04570741e-01  2.57056817e-04  0.00000000e+00
   1.64226313e-01  0.00000000e+00 -1.06496662e+00  4.23798915e-02
   9.70093846e-03  4.83312981e-02  1.15443860e-01  3.96698710e-04
  -1.69054710e-03  7.27042331e-03 -8.00166604e-01 -4.21518470e-03
  -8.36933063e-01  4.03768751e-04  4.32594654e-03  4.02514626e-03]
 [ 1.09807654e-01 -1.46377483e-02  5.87371495e-01 -7.48488054e-02
  -3.02782691e-03  2.15558459e-01  2.88023783e-01 -2.86977839e-02
   1.09540548e-01  0.00000000e+00  1.16265901e-01  2.48245533e-02
   0.00000000e+00 -1.41158097e-01 -1.87929594e-01  2.30690648e-02
  -2.41622783e-02  3.20221139e-02  3.18450130e-02  2.38545566e-01
  -2.07190575e-01  7.06806570e-02  2.23418132e-01 -1.72386861e-02
   0.00000000e+00  7.22752720e-02 -6.66567983e-02  1.04826457e-01
   0.00000000e+00  0.00000000e+00  1.09540548e-01  1.39740260e-02
   1.29731868e-02  1.09818060e-02  1.41869544e-04 -6.34732755e-02
   1.35725654e-01 -2.83581441e-01  6.53497145e-01  2.63850136e-02
  -7.48095412e-02  1.74902036e-02  1.03673083e-01  3.19633107e-02
  -7.14093369e-02 -9.07217669e-03 -4.93414041e-02  3.72684175e-02
  -1.49320659e-02 -3.56903149e-02  2.22364687e-02  2.01771952e-02
  -6.54672357e-02 -7.80770347e-02  1.51978150e-02 -1.59445185e-03
  -1.83353618e-01  1.00824717e-01 -1.94021041e-02 -4.68010595e-02
  -8.97581289e-02  1.98485838e-03  4.34315151e-02  2.02846621e-02
   0.00000000e+00  9.32045433e-01 -4.50013828e-01 -6.94027000e-02
   4.23782256e-01  2.25857589e-02  3.05297078e-01 -2.19036749e-02
   2.04596102e-01  1.22293431e-01  2.79439148e-01  0.00000000e+00
   2.30183813e-01  1.94810536e-02  1.61836069e-02 -2.67173417e-02
  -1.12256408e-01 -4.62540287e-03  6.29105542e-03 -1.31027522e-03
   7.19008798e-03 -1.01610025e-02 -1.13352829e-01 -5.97991370e-04
   0.00000000e+00  0.00000000e+00  0.00000000e+00  9.06181976e-01
   4.44617462e-01 -1.79453347e-02  0.00000000e+00  6.47846095e-03
   2.72960687e-01  2.72124268e-02  5.94610248e-02 -1.48393818e-01
   0.00000000e+00  8.22286819e-03  2.09519850e-02  2.49650674e-01
  -5.27903530e-02 -8.44107194e-02 -5.13060360e-03 -8.87195175e-02
   4.66287764e-02 -4.00747113e-02  2.23050900e-01  6.45445429e-01
  -9.60708640e-03  1.42547968e-01  7.41993035e-02  1.01717755e-01
  -5.84246030e-02 -7.98099312e-02 -3.15015810e-01 -5.28795045e-02
   9.09295867e-04 -3.59689881e-02  2.90314964e-01  2.58170565e-02
  -1.83425802e-01 -2.51828981e-02  1.75622654e-02  6.07705476e-04
   8.06792087e-02 -5.87348793e-03 -1.86744838e+00  1.05440572e+00
  -1.87095038e-03  6.04823145e-02  7.06693132e-02  1.49464155e-03
   4.40512484e-03 -3.46502596e-04 -1.13572892e+00 -8.85666450e-02
  -9.07995363e-01  1.21801497e-03  2.82721907e-03  2.53932545e-02]
 [ 1.25162320e-01 -6.29384784e-02  4.17574108e-01 -3.00818247e-02
  -2.80151872e-01  2.86440048e-01  2.66595422e-01 -1.55448763e-02
   4.78069436e-03  0.00000000e+00  1.09380286e-01 -1.58117415e-01
   0.00000000e+00 -6.24276164e-02  1.26689694e-01  2.03054925e-02
   2.37800109e-02 -7.93533048e-03 -6.07410033e-02  7.01944540e-03
  -1.23200001e-01  6.78267089e-02  1.08856798e-01  2.74616775e-02
   0.00000000e+00  3.64478438e-02  3.20240786e-02 -5.30290633e-02
   0.00000000e+00  0.00000000e+00  4.78069436e-03 -6.10676297e-02
   6.43826896e-03  0.00000000e+00  9.90915794e-03  1.96568950e-02
   1.07760673e-01  2.11499311e-02  2.10877393e-01 -2.77463590e-02
  -3.09022232e-02  1.97609038e-02  3.97052207e-02  8.22203162e-03
   3.63691019e-03  0.00000000e+00  2.72048638e-02 -4.57380849e-02
   5.92045131e-03  2.01749071e-02 -3.83806589e-02  9.82939394e-03
   1.29829810e-02  6.63340071e-02  7.81364060e-02  0.00000000e+00
  -3.84323138e-02  3.90221593e-02 -8.89878704e-02  7.65711283e-03
   1.01522995e-02  1.75365028e-02 -9.30877967e-03  4.16444359e-02
   0.00000000e+00  2.19030105e-01  7.31052306e-02 -2.82913743e-01
   4.51643733e-01 -1.28634402e-01 -8.65093774e-02  3.04727811e-02
   1.80030221e-01  1.90441572e-01  1.41326714e-01  0.00000000e+00
   1.21500511e-01  0.00000000e+00 -5.87727485e-03  7.09540230e-02
   1.58412235e-02 -5.65153081e-03  4.82635758e-05  1.56825682e-02
   1.52199310e-02  4.28817993e-03 -1.37617298e-02 -9.93873665e-03
   0.00000000e+00  0.00000000e+00  0.00000000e+00  1.20791964e-01
   7.69607984e-03 -9.46857326e-02  6.01493216e-03  2.51721701e-02
   1.10139612e-01  8.50372455e-02  7.43165766e-03 -1.67521355e-02
   0.00000000e+00  1.95580722e-02  5.20944332e-02  1.61051972e-01
   2.69230713e-04  8.02194043e-03 -1.00276723e-01  3.56191998e-02
  -4.89660543e-03  3.13846296e-02  5.83905136e-02  3.45237533e-01
   8.19109841e-02  7.82450072e-02 -9.15578165e-02  4.62754315e-02
   0.00000000e+00 -7.12100803e-02  2.18803363e-01  4.51016830e-02
   0.00000000e+00 -1.26253473e-03  3.37364446e-01  3.07001973e-03
   1.07840340e-02  8.19567534e-03  0.00000000e+00  0.00000000e+00
   4.85265459e-02  0.00000000e+00 -1.23758089e+00  1.07392658e-01
   1.74946669e-02 -3.09635808e-02  2.06378894e-02  6.05262435e-04
  -2.75123394e-05  6.43523902e-03 -5.61637973e-01 -1.15171675e-01
  -5.28450792e-01 -5.59866234e-03 -8.83627772e-04  1.04482342e-02]
 [ 8.69975554e+00 -3.20015442e-01 -2.75603228e-01 -1.12191776e-01
   2.96311071e-01 -6.30019233e-02 -3.20949182e-01 -9.47933594e-01
  -1.02849889e-01  0.00000000e+00 -9.90390482e-01 -5.30787611e-01
  -3.53231795e-02 -1.27255944e-01 -1.54063355e+00 -3.65132625e-03
   1.74993313e-03  7.99734420e-03 -1.15035497e-01  4.55937594e-01
  -1.80462612e-01 -1.01713331e-01  8.49886277e-01  6.95863835e-02
   0.00000000e+00  3.74552694e-01  1.94294166e-01 -9.83909395e-01
   0.00000000e+00  0.00000000e+00 -1.02849889e-01  1.76972667e-01
   1.34043154e-02  1.05970074e-01 -1.01623021e-01 -2.28896172e-01
  -1.12600892e-01  2.75409453e-01  3.87596690e-01  5.29722044e-01
  -1.36290595e-01 -1.46632947e-01  3.17394933e-01  6.54350283e-01
   9.15032124e-02  1.26653068e-01  6.33119574e-03 -1.67902259e-02
   1.92864079e-01 -4.99165062e-02 -8.40940450e-03 -1.49248306e-01
  -1.01971608e-01 -5.18088213e-01 -1.52503285e-02 -3.39383099e-01
  -5.98504857e-01  5.68789821e-01  6.95456319e-02  1.93627642e-01
  -3.28581840e-02  6.05329727e-02  1.08200921e-01  8.69186746e-04
   0.00000000e+00  2.02846523e+00 -6.34369486e-01 -2.72149394e-01
   2.28261497e-01 -1.09321062e-01  1.75067951e+00 -5.41163755e-01
  -2.58974271e-01 -6.54447797e-01  1.98512356e-02  0.00000000e+00
  -1.33022693e+00  3.45684542e-03  2.56469175e-02 -2.03216800e-01
  -1.35551601e+00  5.41444760e-03  4.74209804e-02  1.19136186e-03
  -4.54658108e-01  2.17847324e-02 -2.82350524e-01  0.00000000e+00
   0.00000000e+00  0.00000000e+00  0.00000000e+00  7.11734943e-01
   6.12139259e-01  4.77079386e-01 -5.19821103e-02 -7.64145664e-01
   8.35979010e-01  2.81987974e-01  9.07416357e-01 -1.44870779e+00
  -9.41740108e-02 -1.50990903e-01  8.03124211e-01  1.44930609e+00
   1.66657944e-01  6.20434887e-01  1.06161865e-02  3.82124951e-01
  -1.85350804e-01 -3.05650409e-01  4.01177015e-01  1.65552276e+00
  -8.76173231e-02  1.99286901e-01  7.78860853e-02  1.88837698e-01
  -3.37560581e-01 -3.46992455e-01 -7.16024795e-01  4.11491850e-01
  -9.57912746e-02 -5.52128644e-01  7.39290662e-01  4.20119235e-01
  -5.20328681e-02 -4.01316669e-01  5.92888378e-03 -3.95816813e-02
  -2.14906205e-01 -1.01197756e-01 -3.32567186e+00  2.92755674e+00
  -6.60101785e-02 -2.77498157e-02 -1.86739319e-01 -1.18049911e-03
   2.97934856e-03 -1.60289133e-02 -2.85918606e+00 -3.69066065e-01
  -1.31562027e+00 -7.57322363e-02  8.42543816e-03 -1.05740863e-01]
 [ 6.47311968e-04  5.02870792e-02  3.39751868e-01 -3.41018827e-02
  -1.67471424e-01  1.76104838e-01  1.22659970e-01  1.05279619e-01
   3.12527452e-02  0.00000000e+00  1.73594329e-01 -2.41154912e-02
  -4.29460087e-03  5.69766992e-02  1.51066391e-01  1.82035510e-02
   4.69835961e-02  5.85759519e-02  1.47693169e-02 -1.70709347e-01
  -1.19786293e-01 -2.72654143e-01  1.62983143e-01  0.00000000e+00
   0.00000000e+00  7.07773772e-02 -8.60663599e-02  5.46717137e-03
   0.00000000e+00  0.00000000e+00  3.12527452e-02  4.97012508e-02
   2.07802119e-02 -1.61665798e-02  1.30354103e-02 -3.15195079e-02
   3.69990134e-02 -2.16873193e-01 -5.82615211e-02  6.07105916e-02
   4.93247837e-02  5.14866365e-03  6.33787557e-02 -6.96492316e-02
   1.17224417e-02 -8.21614817e-02  1.64746738e-02  1.24279486e-02
   1.55277589e-02  4.97808494e-02 -1.49939173e-02  7.09524859e-03
   3.17814125e-03  7.40602341e-02  1.66172803e-02 -1.51379947e-03
  -2.39585657e-02  1.47608338e-01  3.98084514e-03  9.83277746e-02
   4.48927592e-02  0.00000000e+00  1.63844428e-02  2.02135153e-02
   0.00000000e+00  2.15914437e-01 -1.08916126e-01 -1.10082770e-01
   2.73330205e-01  3.27598544e-02  1.27036409e-02 -1.02795543e-01
   2.96778023e-01  1.98735091e-01  4.25796005e-02  0.00000000e+00
   2.34308920e-01  6.05082949e-03  0.00000000e+00  1.77352193e-01
   4.23409684e-02 -1.68678127e-04 -1.18433277e-02  8.73759136e-03
  -9.74760774e-02  0.00000000e+00  2.82803747e-02  2.95093315e-03
   0.00000000e+00  0.00000000e+00  0.00000000e+00  3.26708211e-02
   4.02583198e-02 -7.11098839e-02  0.00000000e+00  1.51732259e-02
   2.74063745e-02 -1.21411495e-01 -7.19310206e-02  1.39869555e-01
   0.00000000e+00  1.12153107e-02  2.80307646e-02  2.43161742e-01
  -4.56520145e-02  5.52876493e-02 -3.30750425e-03 -1.19522027e-01
   5.83268784e-03 -1.76297335e-02  1.55772852e-01  3.15683786e-01
   8.77428911e-02  7.09473973e-02  2.37885016e-02  3.59379499e-02
   4.50905026e-03 -5.21632262e-03  4.33778943e-01 -1.29812256e-01
   5.34814508e-02  6.41845178e-03  3.96664031e-01  1.11539856e-02
   1.47522875e-02  0.00000000e+00  0.00000000e+00  0.00000000e+00
   2.06203018e-02  0.00000000e+00 -1.59980263e+00  9.01446286e-02
  -2.17894508e-04 -3.96602321e-03  2.88270688e-02  2.45643996e-03
  -7.91945990e-03  1.99585743e-02 -7.46144254e-01 -1.35867003e-01
  -6.08954446e-01  1.54526539e-02 -1.44110830e-03  2.78639531e-02]
 [-1.89028889e-02 -1.46953340e-01  5.59003851e-01  6.18911252e-02
  -1.99199902e-01  2.37276542e-01  5.11499830e-01  7.82721479e-02
  -2.12629750e-01  0.00000000e+00  1.01777815e-01  2.74507602e-02
   3.24881156e-03  4.93745149e-02  8.35323552e-02  4.75044603e-02
   4.11214144e-02  1.47125171e-02  3.66816803e-03 -1.49921978e-01
  -2.62406462e-01  1.67500495e-02  1.78483041e-01  4.38227323e-02
   0.00000000e+00 -1.71907423e-02 -5.92784451e-02 -2.32394592e-02
   0.00000000e+00  0.00000000e+00 -2.12629750e-01 -8.02203880e-02
  -1.04172214e-02  0.00000000e+00  1.65524956e-02 -4.91658675e-03
   1.36333004e-01 -5.74579072e-03  4.24392974e-01  3.77637334e-02
  -9.45602944e-02  9.98534468e-02 -8.47549060e-02  6.03183066e-02
  -3.03119579e-02  4.07878782e-02  0.00000000e+00  3.49498883e-02
  -9.84863587e-03 -2.18912766e-02 -1.01801293e-01  2.56612307e-02
   5.55763442e-02 -1.14572330e-01  3.60722851e-02  3.09614981e-02
  -9.66657042e-03  1.77761556e-01  1.71639810e-02  4.42118161e-02
   6.29903842e-03 -3.39312355e-03  4.98180834e-02  5.26178187e-03
   0.00000000e+00  1.28668951e-01 -3.57320475e-01 -1.44596146e-02
   4.18375892e-01  4.30669066e-03 -5.17689814e-02 -1.31760858e-01
   2.95636669e-01  2.32084320e-01  2.18458639e-01  0.00000000e+00
  -4.50904836e-02  0.00000000e+00  0.00000000e+00 -1.70616905e-02
  -1.90367023e-01  1.31888627e-03 -4.95963015e-02 -2.57227912e-03
  -1.41775409e-02  2.66274607e-02  3.10771481e-02  0.00000000e+00
   0.00000000e+00  0.00000000e+00  0.00000000e+00  1.29934451e-01
   9.47411257e-02  7.79940364e-02  0.00000000e+00  6.70008604e-02
   1.51457778e-01  1.29478080e-01  1.43453154e-02  3.73365211e-02
   0.00000000e+00  1.65524956e-02  6.38717460e-02  1.04804782e-01
  -5.05922617e-02 -8.54500138e-02  7.39500852e-03 -1.32665751e-03
  -1.03783991e-01 -6.06156018e-03  2.77446224e-02  4.73936505e-01
   2.35579321e-01  2.59742211e-01 -1.09014195e-02  4.13632913e-02
   5.90693717e-04 -8.85080207e-02  1.79188695e-01  1.93627709e-02
   1.66304739e-02  3.13368486e-03  2.76139355e-01 -2.22752288e-03
   4.57649068e-02 -9.33410080e-05  1.28067096e-03  0.00000000e+00
   4.07060880e-02  0.00000000e+00 -1.29287011e+00  2.24459485e-01
  -6.28529976e-03 -4.81645415e-02 -8.38634130e-04 -3.19974818e-04
  -1.27303857e-03 -2.52224406e-03 -9.39592683e-01 -2.15245541e-02
  -9.24894483e-01 -5.88979717e-04  6.34819024e-03 -1.91418405e-02]
 [ 1.30485874e-01  1.40110249e-01  7.72719550e-01  7.37805177e-02
   1.29816674e-01  4.95716730e-01  3.83497663e-01  2.65509948e-01
   5.29542470e-02  0.00000000e+00  9.24490856e-02 -2.94137538e-03
   0.00000000e+00  6.27504971e-02  1.16095662e-01 -1.10605790e-01
   3.71064579e-02 -5.90029224e-02  8.73291249e-02  2.82957966e-01
   3.91106701e-01  4.74248352e-01  5.12044290e-01  1.86043149e-01
   0.00000000e+00 -1.15869452e-01 -1.69853014e-01 -3.32479978e-02
   0.00000000e+00  0.00000000e+00  5.29542470e-02 -1.50962527e-01
  -2.13124080e-02  1.23306604e-02 -3.75409798e-03 -9.58484052e-02
   2.12466573e-02 -4.59395962e-02 -8.67872409e-02 -8.24112271e-02
   9.03769333e-03  2.10326216e-01 -3.52430159e-02  2.67668411e-02
  -4.05966140e-02 -1.23700634e-02 -5.76113815e-02  1.01003132e-01
   1.28693200e-02  1.38604764e-02 -3.41862281e-02  3.28128021e-02
  -4.47056980e-02  4.44439695e-02 -9.40545647e-02  4.52683428e-03
  -3.26997832e-01 -1.86149521e-02  1.73311944e-02  2.06792239e-02
   1.32212929e-02 -1.14328064e-02  1.21004336e-02  4.38551758e-03
   0.00000000e+00  2.85489896e-01 -3.98629118e-01 -1.80249698e-02
   5.91579053e-01 -1.41604441e-01  1.53036721e-01  1.89355408e-01
   4.79330990e-01  2.74890339e-01  2.54101851e-01  0.00000000e+00
   1.17360039e-01  9.91815973e-03  1.07644948e-01  3.08423509e-01
  -2.01807949e-01  9.19103736e-03  6.00404642e-02 -5.78239678e-05
  -8.55991099e-02  8.03814735e-04  2.42622883e-02  0.00000000e+00
   0.00000000e+00  0.00000000e+00  0.00000000e+00  5.25134254e-01
   9.70930569e-02 -4.18470434e-02  6.30614223e-03  1.36717764e-02
   2.34123933e-01 -8.15499140e-03  3.67547680e-02 -4.39534020e-01
  -1.32650292e-02  1.31540202e-03  3.10318776e-01  5.12564718e-01
   1.37798862e-02 -1.46349057e-01 -3.89315260e-02  1.60294211e-01
   2.20586769e-01 -5.05980847e-02  2.94820213e-01  4.23165092e-01
   3.23750544e-01  3.26614805e-01  3.45749409e-02  1.46471427e-01
   1.12794381e-02  9.44846535e-02 -5.02530146e-02 -1.08454768e-01
   8.66792734e-02  1.72815774e-02 -2.51504515e-01  2.47058386e-02
  -1.62001644e-02 -1.27156862e-01  3.50809974e-03  3.08291011e-02
   1.20785815e-01 -6.57589075e-03 -1.92457033e+00  2.78361220e-01
   2.52423389e-02  1.51096236e-02  6.21067260e-02  7.23152544e-07
  -4.16046612e-03  4.20417693e-03 -1.39603872e+00 -1.29468836e-01
  -6.81091772e-01 -5.90061968e-02 -1.91610452e-02 -7.58720678e-02]
 [ 1.27582569e-01 -1.10945466e-01  6.23214030e-01  4.70022109e-02
   1.27381786e-01  2.64039146e-01  4.00958132e-01  9.61875531e-02
   2.60878145e-02  0.00000000e+00 -6.31504812e-02  4.44845178e-02
  -3.94492095e-03  4.23553465e-02  8.72468898e-03 -8.67147503e-02
   6.26838590e-02 -1.65679473e-01  1.56980605e-01  1.06984901e-01
  -7.36208259e-02  6.16139721e-02  2.01366177e-01  3.90240012e-03
   0.00000000e+00  1.06197240e-01  1.03623007e-01  1.20378984e-01
   0.00000000e+00  0.00000000e+00  2.60878145e-02 -2.93407567e-02
   4.69531828e-04  5.52885612e-03  6.70774428e-03  2.32014657e-02
   8.31603113e-03 -1.27933026e-01  2.86349846e-01 -6.38621204e-02
  -7.11554208e-02  1.60005168e-01  2.66977911e-02 -7.06885678e-02
  -4.96137161e-03  1.10127123e-02  4.40005627e-03 -3.72356016e-02
  -8.17561378e-02  1.62281220e-02 -4.30791122e-02  1.51365403e-02
   3.12026147e-02 -2.54106316e-02 -4.58453388e-02  1.46204835e-02
  -6.29296739e-02  1.54056199e-01 -2.08114604e-04  4.24883473e-02
   9.54513957e-03 -2.08024648e-03 -4.23764037e-02  2.78954582e-02
   0.00000000e+00  1.17992498e-01  1.87041866e-01 -7.99040258e-02
   5.04502794e-01  1.55235936e-01  2.29036502e-01  1.88384596e-02
   2.06388835e-01  2.75007109e-01  2.87038242e-01  0.00000000e+00
   5.29190973e-02  5.48392177e-03  1.20495589e-03  1.88264953e-02
   8.72189203e-03  1.73026770e-02  1.39292178e-02  3.23123495e-03
  -1.02612101e-01  4.17903652e-05  2.60465554e-02 -6.63452624e-03
  -2.16789303e-02  0.00000000e+00  0.00000000e+00  2.67910124e-01
   6.89282489e-02 -2.66429377e-02  8.24220409e-03  5.64724182e-02
   2.22323620e-01  3.56280509e-02  2.38382803e-02 -1.69615666e-01
   0.00000000e+00  5.69264654e-03  3.44621324e-03  1.53497833e-01
  -1.99706005e-02  8.95853502e-04 -3.42990759e-02 -6.01867620e-02
   4.21372997e-02 -4.90967097e-02  1.22143102e-01  6.51184349e-01
   1.28888613e-02  1.05616734e-01  2.00607542e-03  2.95678479e-02
  -8.59757728e-03  1.08989277e-02  1.63713856e-01  4.29367385e-02
   2.90952027e-02  1.06939681e-02  2.88747981e-01 -7.43267778e-03
   2.30745734e-02  1.14766722e-02 -1.02378221e-06  3.82678474e-03
   9.94089164e-02  1.17769680e-02 -1.36173695e+00  2.86301001e-01
   2.19599292e-02 -5.18652441e-02  2.53974190e-02  4.65515491e-04
  -2.07720723e-03  1.20717768e-03 -1.19973465e+00  4.84256852e-02
  -1.02474003e+00  4.05909594e-03  7.16338321e-03  3.31234731e-02]
 [ 1.53239323e-01 -4.58953894e-02  4.45345546e-01  1.07777042e-01
   1.46958062e-01  2.76484322e-01  2.17123676e-01 -1.10338812e-01
  -1.05387612e-01  0.00000000e+00 -1.28625104e-01  9.06234129e-02
  -3.22753714e-04 -2.56302030e-01  3.45179078e-01 -1.24862369e-02
  -1.31255814e-02 -2.06484188e-02 -9.14975088e-02 -4.21625896e-02
   8.29949345e-02 -5.09074652e-02  2.83136179e-01 -1.06417927e-02
   0.00000000e+00 -2.06756229e-01 -4.67840518e-02  1.74767838e-01
   0.00000000e+00  0.00000000e+00 -1.05387612e-01  1.46211094e-01
   1.13113624e-02 -2.83955705e-02  3.60513381e-02 -3.92661480e-01
  -2.70145897e-01  2.80627953e-01  1.05600004e-01  1.22361890e-01
  -3.78186246e-02  1.32816834e-01  1.67862583e-01 -1.27315104e-01
   5.11451005e-02  7.65572800e-02 -1.42986579e-01  1.32093502e-02
   1.33436289e-02 -7.04480068e-02  2.31951645e-02 -2.18457313e-02
   2.22448057e-02  5.03689457e-02  1.60917026e-01 -1.18408120e-01
   3.51380491e-03 -1.33401038e-01  2.10714575e-02  9.01771436e-02
  -7.54770336e-02  2.50179283e-02  5.64412491e-02  9.56847478e-02
   0.00000000e+00  3.97611929e-01 -2.75025946e-01  8.80872634e-02
   2.66970655e-01 -3.10014290e-02 -5.62351262e-02 -1.16063468e-01
  -2.47370981e-02  1.96137984e-01  2.22544157e-01  0.00000000e+00
   2.29289579e-02  0.00000000e+00  0.00000000e+00  1.50892936e-02
  -9.91048350e-02  1.66215012e-03 -9.06737987e-04  1.64164613e-02
  -5.58286672e-02  0.00000000e+00 -1.12576362e-01  9.68638085e-03
   0.00000000e+00  0.00000000e+00  0.00000000e+00  3.33867206e-01
   9.61838784e-02 -5.18691704e-02  0.00000000e+00  9.02808871e-02
   1.32263270e-01  1.43665251e-01 -7.58200238e-03  1.35795792e-02
   0.00000000e+00  4.18939984e-02  1.59943195e-02  1.58529926e-01
   4.86169821e-02  5.00064192e-02  5.36343569e-02 -1.36995103e-01
  -1.05944393e-01 -1.56500039e-01  2.34193214e-01  5.28418729e-01
   4.63126224e-02 -1.01223274e-01 -8.90695851e-02 -4.80174474e-02
  -1.31036119e-01 -3.23737599e-02  1.51541794e-01 -7.84334704e-02
  -3.08563494e-02  4.16702488e-02  1.08952691e+00  5.37722255e-03
  -8.69877581e-02 -1.07550467e-01  0.00000000e+00  0.00000000e+00
  -2.03916126e-02  6.78858606e-03 -1.61699992e+00  1.02453379e+00
   2.87624674e-02  2.92783360e-02  1.38323866e-01  5.01898380e-03
   8.30639858e-04  3.48814089e-02 -1.47695073e+00 -1.14831922e-01
  -1.33610482e+00 -1.85142874e-01  6.67011885e-03 -2.05114235e-01]
 [ 8.86887590e-02 -1.06205732e-02  6.71683963e-01 -4.04985854e-03
  -6.68476892e-02  3.30623121e-01  3.29190275e-01  1.40927822e-01
   5.90335773e-03  0.00000000e+00  4.87689188e-02 -4.42715363e-02
   6.87177670e-03  3.61512738e-02  1.43962993e-02  6.72338330e-03
   1.49862639e-02  5.25554018e-02 -1.56808570e-01  4.66113025e-02
  -1.08447472e-01  4.72957946e-03  1.74286732e-01  7.37983708e-03
   0.00000000e+00  7.75708525e-02  2.18509414e-02  1.00176380e-02
   0.00000000e+00  0.00000000e+00  5.90335773e-03  7.46423863e-02
   0.00000000e+00  4.84190915e-03 -8.73840198e-02  1.14175334e-01
   1.19893087e-01 -9.69627916e-02  2.24166822e-01  4.08792131e-02
  -5.91715454e-03  5.24126789e-02  1.19665167e-01  1.63109290e-02
  -8.71729656e-03  4.01758081e-02  1.39585589e-02  1.94008212e-02
   1.11925298e-02  1.57895498e-03 -1.94956119e-02  7.59151733e-03
  -4.57184088e-02 -2.01606761e-02  4.02380415e-03  7.10663072e-03
  -1.38127034e-01  8.84986244e-02  4.02203657e-02  4.74865846e-02
   1.19747716e-02 -1.68557531e-02  7.04386435e-03 -4.05330178e-02
   0.00000000e+00  2.04348664e-01  1.18132949e-01 -8.23577367e-02
   5.67486664e-01 -3.42060723e-02  1.44023833e-01  1.13956065e-01
   2.61642946e-01  2.19807385e-01  2.11238180e-01  0.00000000e+00
   6.78865307e-02  0.00000000e+00  2.35025545e-02 -5.19295332e-02
   2.61746735e-02 -2.39409262e-03 -9.36566114e-03 -1.95201635e-04
   6.01934296e-03  0.00000000e+00  0.00000000e+00  5.36285358e-04
   0.00000000e+00  0.00000000e+00  0.00000000e+00  2.60017222e-01
   1.48385890e-01  2.34248029e-02  0.00000000e+00  2.73659051e-02
   1.83872275e-01  9.78138123e-02  1.70542238e-02 -1.75681106e-01
   0.00000000e+00 -9.72925215e-02 -3.57147784e-03  1.39690837e-01
  -9.67698321e-03 -4.39867979e-02 -1.82025887e-02  5.25936457e-03
  -5.48145202e-04 -2.47393140e-02  9.45770184e-02  6.32043799e-01
   1.21028797e-01  5.69641754e-03 -3.39367842e-02  1.57127413e-02
  -1.89490756e-02  2.67811170e-02  7.03532948e-02 -2.90647915e-04
  -3.89524319e-03  1.19994011e-02  2.56073429e-01  2.02154868e-03
   8.05740751e-03  3.54521243e-03  0.00000000e+00  5.60528615e-03
   7.44157806e-02  0.00000000e+00 -1.05361522e+00  2.98864200e-01
   2.52217541e-02 -5.48217490e-02  1.29159205e-01 -2.83148332e-03
  -8.26494538e-03 -9.56700131e-03 -6.74296679e-01  7.60240370e-02
  -7.14091437e-01 -5.57982736e-02 -5.30066492e-02 -7.16458131e-02]
 [-2.12871343e-03 -1.82735783e-02  5.80097378e-01 -4.40743548e-03
   4.90584628e-02  1.78485641e-01  3.26201908e-01  5.99200789e-02
   9.00432339e-02  0.00000000e+00  1.19378481e-01 -5.92227561e-02
   2.24763540e-04 -9.33147865e-04 -1.64848940e-02  2.01186521e-02
   2.46111851e-03  3.60462389e-03  1.12461945e-02  1.12537833e-01
  -8.80422916e-02 -1.05274987e-02  9.26573355e-02  6.58024495e-03
   0.00000000e+00  2.11342023e-02  6.82770875e-02  9.38227855e-02
   0.00000000e+00  0.00000000e+00  9.00432339e-02 -2.10828315e-01
   2.19862347e-03  1.09012341e-03  1.06971111e-03 -4.81688446e-03
   5.00039913e-02 -5.91674689e-02  3.08912353e-01 -1.52738896e-02
  -3.05376846e-02  6.65160837e-04  6.89932324e-02  1.73547788e-02
   1.06707532e-02  0.00000000e+00  4.36466474e-03 -3.29869346e-02
   7.16793284e-03 -7.04162698e-02  8.43029993e-03  2.27878459e-03
   3.34649500e-03  1.88304815e-03  9.24419680e-02  0.00000000e+00
  -8.24935454e-02  9.08555675e-02 -9.58287097e-03 -6.57317736e-02
   3.53241296e-04  6.77541725e-03  1.91508383e-02  7.16035457e-02
   0.00000000e+00  2.72112556e-01  2.13363335e-01 -4.89977609e-02
   4.53149893e-01  9.63771055e-02  1.59839905e-01  7.93863731e-03
   2.65583618e-01  1.90710972e-01  1.90417635e-01  0.00000000e+00
   1.35295891e-01  8.23720144e-03  6.79374782e-03  5.37596086e-02
   1.54871900e-02  2.71951081e-03  4.78069319e-02  8.24519482e-03
  -1.73238333e-02  0.00000000e+00  9.50510994e-03  3.27399312e-04
   0.00000000e+00  0.00000000e+00  0.00000000e+00  2.43457860e-01
   1.22852666e-01  4.84899234e-02  0.00000000e+00  1.42668069e-02
   1.76150828e-01  4.31801028e-02  3.47436169e-02 -1.54217853e-01
   0.00000000e+00  1.06971111e-03  2.73680181e-02  6.29803400e-02
   4.57781523e-03 -6.55180900e-02 -3.69298804e-02 -1.26729331e-02
  -8.12827653e-03 -5.53648507e-02  1.16821528e-01  5.97394198e-01
   5.04012916e-02  1.04179943e-01 -4.75292753e-03  2.88722489e-02
   7.11610581e-03  1.97675739e-02  1.19525097e-01 -3.04417021e-02
   2.76618774e-03  1.67112986e-02  1.98029210e-01  7.38639348e-03
   1.47100875e-02 -1.93933954e-02  0.00000000e+00  5.60465477e-03
  -3.74814838e-02  0.00000000e+00 -1.25972521e+00  6.99108547e-02
  -1.53099087e-02 -1.23431727e-01 -9.91425349e-03  8.41870865e-04
  -1.43234973e-03  2.66153959e-03 -7.86384725e-01  4.72980927e-03
  -9.16417194e-01 -6.56796215e-02  3.87390183e-02 -9.17834963e-02]
 [-6.72696691e-03 -3.63036524e-02  6.45162922e-01 -1.44399888e-02
  -3.35152941e-02  2.53607625e-01  4.23109052e-01 -8.11927679e-02
   4.25006833e-02  0.00000000e+00 -3.30009032e-02  9.75465564e-02
  -6.80344487e-04 -4.95510251e-02 -9.05302318e-02  1.57603448e-02
  -1.98554709e-02  4.04910290e-02 -5.13669048e-02  5.90793679e-02
   3.76385520e-02  1.72781231e-01  1.61689574e-01  8.05244502e-03
   0.00000000e+00  7.37126991e-02 -4.85971837e-02  1.32066816e-01
   0.00000000e+00  0.00000000e+00  4.25006833e-02  4.28915510e-02
  -1.17654998e-02 -1.19483055e-02  7.70989965e-03 -1.28733439e-01
  -1.45331263e-02 -5.73789443e-02  2.81443448e-01  8.52909166e-02
  -4.14574727e-02  2.51168212e-02  1.30226755e-01  5.70280753e-02
  -3.72815561e-02  2.67307547e-03  1.73225379e-02  3.54962525e-03
  -1.82511864e-01 -7.76677205e-02 -8.76100590e-03 -9.69475227e-03
  -1.25229636e-02  5.90297887e-02 -2.20622188e-02  1.52669433e-02
  -1.48183484e-01  1.13671999e-01  1.20690082e-02  1.12915351e-02
  -5.11557592e-03 -4.29716760e-03 -6.96648155e-02  6.92852897e-02
   0.00000000e+00  2.84702266e-01  1.44352008e-01 -6.27794848e-02
   4.89439030e-01  4.89369278e-02  8.23959186e-02  5.68537064e-02
   1.04926917e-01  1.94904875e-01  2.81339094e-01  0.00000000e+00
  -2.20487733e-03 -3.40507867e-04  2.29868863e-03 -9.94480279e-02
  -2.91812356e-01  2.69547521e-02 -2.02716144e-02 -6.63367714e-03
  -3.02166758e-02  1.51563421e-02  8.12919267e-03 -1.22554768e-02
   0.00000000e+00  0.00000000e+00  0.00000000e+00  4.01044458e-01
   1.10005013e-01  3.82998839e-02 -1.26655185e-03  4.87083256e-02
   2.33897320e-01  1.10890515e-01  1.86622725e-01 -1.49249832e-01
   0.00000000e+00  9.30283236e-03 -2.07349734e-02  4.89296537e-02
   4.55415772e-03 -4.01060449e-02 -9.97482908e-02 -6.53647734e-03
   6.42730076e-02  1.81188788e-03  2.54307526e-01  6.12697206e-01
   2.08618685e-01  4.62372773e-02 -7.37315689e-03  7.37786372e-03
  -2.86259733e-02  7.04902325e-03  3.42621509e-02  8.51350051e-03
  -1.07125395e-02  4.01971779e-02  2.62070807e-01  1.91038135e-02
  -3.71369083e-02 -2.84001593e-02 -6.11716778e-04  0.00000000e+00
   5.55749436e-02  0.00000000e+00 -1.33517830e+00  3.34708771e-01
   1.84570609e-06  1.44535329e-02 -4.26880320e-02  1.65980992e-03
   4.45333761e-03  5.77225528e-03 -1.08172744e+00 -6.41268620e-02
  -1.16651450e+00 -6.42457702e-02 -3.18578011e-02 -9.03577112e-02]
 [ 1.38730845e-01  2.90012161e-02  5.54597990e-01  5.08877291e-02
   1.24036236e-01  3.64975047e-01  2.17051578e-01  1.14422404e-02
   6.03549069e-02  0.00000000e+00  4.42506618e-02 -7.72233483e-02
   0.00000000e+00  1.76195374e-02  5.06781029e-03  2.18663983e-02
   8.13065923e-04 -2.03425617e-03  4.90818832e-03  2.13112999e-01
  -2.95419972e-01 -2.02560319e-01  1.80224681e-01 -2.22621113e-03
   0.00000000e+00 -1.91665661e-02  1.07816668e-01  1.63947202e-01
   0.00000000e+00  0.00000000e+00  6.03549069e-02  5.58368027e-02
  -9.71055070e-04 -4.20890008e-03 -1.02649161e-02  1.47691196e-02
   5.66962816e-03 -1.07797665e-01  2.64717272e-01  4.33194602e-02
   1.77102499e-02 -3.65581580e-02  8.91749503e-02 -1.83968031e-01
   1.19602224e-02  2.77219160e-02  5.19877174e-06 -2.52908821e-02
   1.55348907e-02  1.92565139e-02 -9.39686421e-02  2.21720491e-02
  -3.72737236e-03  4.69636624e-02 -1.50252402e-02  1.03568328e-02
  -8.39283772e-03  1.08705400e-01  3.18239973e-02  1.03198910e-01
   8.33636570e-03  7.21761787e-03  3.73967128e-03  1.44552949e-02
   0.00000000e+00  1.52220084e-01  2.51345807e-01 -9.78190479e-02
   4.09328570e-01 -5.74427210e-02  8.79304997e-02 -5.97636045e-02
   2.07246333e-01  3.17863204e-01  1.88477840e-01  0.00000000e+00
   7.03349158e-02  0.00000000e+00  0.00000000e+00  6.92255260e-02
  -7.34397042e-03 -3.15528853e-02 -8.49948467e-03 -1.59300291e-02
  -3.97764919e-02  0.00000000e+00 -1.72876955e-02  0.00000000e+00
   0.00000000e+00  0.00000000e+00  0.00000000e+00  2.86846997e-01
   7.24803595e-02  3.42185418e-02  0.00000000e+00  3.38509358e-02
   1.54626904e-01  1.02005012e-01  3.05955280e-02 -1.39286998e-01
   0.00000000e+00 -1.71266590e-02  4.99371593e-02  1.49573919e-01
   2.38315666e-02 -2.83621762e-02 -1.16034284e-02 -4.80873771e-02
  -5.10969568e-02 -3.73179730e-02  1.05694892e-01  6.19210718e-01
   6.96489899e-02  1.08365946e-01  2.67561085e-03  1.00238679e-02
   1.09820140e-02 -5.93338960e-03  1.85796719e-01  2.44603807e-02
  -9.05162235e-03 -1.38987416e-02  3.90229993e-01 -1.87945429e-04
   3.74239141e-02 -1.48452299e-02  3.54713252e-03  3.17643115e-04
   1.05139447e-01  5.07494468e-03 -1.60510675e+00  3.47467108e-01
   8.23039215e-03  1.13442763e-01  1.10178126e-02  4.43804488e-05
   3.93190116e-04  1.44236456e-03 -9.43411078e-01 -1.73106201e-01
  -9.48199861e-01 -5.94437739e-02 -2.85999612e-02 -5.17262338e-02]
 [ 1.64690245e-01 -6.32674921e-02  6.93657625e-01  3.01601113e-02
  -3.62288951e-02  3.39177248e-01  2.85030359e-01  1.47008267e-01
   6.77664409e-02  0.00000000e+00  3.43631408e-02  7.79620727e-02
   8.44109123e-03  5.51246829e-02 -8.03574191e-02  3.66399435e-02
   1.86292313e-02  1.68757856e-02 -6.38778185e-02  1.57237040e-01
  -1.93286839e-01  5.34130540e-02  8.52068382e-02 -3.82686344e-03
   0.00000000e+00  5.06256370e-02  5.20380163e-02  6.85057098e-02
   0.00000000e+00  0.00000000e+00  6.77664409e-02 -5.75267753e-04
   3.83111646e-02  1.18252785e-02 -3.64274809e-04  2.11191004e-02
  -1.59820899e-04 -1.14414587e-01  2.78155389e-01  3.82578291e-02
  -9.11823018e-02 -1.16608034e-02  1.12706642e-01  2.58186500e-02
  -1.38583576e-02  4.48407826e-03  1.34533498e-02  2.78552429e-02
   1.29671334e-02  6.04458321e-03 -4.05487036e-02  8.04123151e-04
  -1.15820506e-02  7.34991626e-02 -1.16948581e-01  1.38795384e-02
  -1.40149130e-01  1.38862115e-01  8.81831602e-03  1.22146714e-02
   1.66464153e-02  0.00000000e+00  3.81123853e-02  4.51112802e-02
   0.00000000e+00  2.56209287e-01  1.27356849e-01  3.70363835e-02
   5.19240033e-01 -3.35413456e-02  3.20618426e-01  7.97296983e-02
   2.70818280e-01  2.15324481e-01  2.73109856e-01  0.00000000e+00
   1.60873764e-01  0.00000000e+00  0.00000000e+00 -1.82018906e-01
  -4.04816580e-03  1.87176140e-03 -1.98450883e-02 -9.30719941e-04
  -8.76738760e-02  0.00000000e+00  8.48494761e-03  0.00000000e+00
   0.00000000e+00  0.00000000e+00  0.00000000e+00  2.73729354e-01
   1.39634845e-01 -1.38588939e-02 -2.06118754e-05  7.33337599e-03
   2.65797092e-01  4.71906338e-02  5.21242301e-03 -1.49490467e-01
   0.00000000e+00  7.33440967e-03  1.96232486e-02  5.52584566e-02
   1.30554958e-02 -1.21621170e-02 -4.18189352e-02  2.18418324e-02
  -2.06330944e-03 -3.51851079e-02  9.11128220e-02  6.36105116e-01
   8.82246019e-02  2.83074087e-02  2.32426981e-02  5.44994381e-02
  -1.35054282e-02 -5.04808999e-03  1.17553120e-01  3.09761432e-02
   2.65429120e-02 -2.68531139e-02  2.27787423e-01  3.61743777e-02
   1.03593039e-02  4.67598000e-03  0.00000000e+00  0.00000000e+00
   8.05734906e-02  3.06759264e-03 -1.05293892e+00  1.82797550e-01
   1.22535822e-02  2.23502098e-02  4.26764323e-02  2.22140908e-03
   6.69545943e-04  1.63331591e-02 -7.41157452e-01  7.61642765e-02
  -7.96442320e-01  9.85031585e-03 -5.35144143e-03  1.85503151e-02]
 [ 9.12590314e-02  1.10484386e-01  6.40665533e-01 -3.07401163e-02
  -9.79763111e-02  3.07882531e-01  2.19838273e-01  4.01453820e-02
   9.68524611e-02  0.00000000e+00 -2.69973254e-02 -1.14284753e-02
  -1.55199537e-03 -6.04079084e-02 -7.76461772e-02 -8.14768291e-03
   2.41050734e-02 -1.69787379e-02  2.09546441e-02  1.24843964e-01
  -1.27708018e-01  5.95221059e-02  1.38785864e-01  7.65222639e-04
   0.00000000e+00  6.85384696e-02  6.86712761e-02  5.70025811e-02
   0.00000000e+00  0.00000000e+00  9.68524611e-02  1.01685962e-01
   1.30218135e-02  8.03630330e-04 -7.51431061e-03 -8.53480342e-05
   1.62525815e-01 -1.33168018e-01  2.84304892e-01  7.11819855e-02
   3.67566780e-02 -1.53355203e-01  9.70468072e-02 -1.17409927e-01
   1.06446288e-02  1.96400004e-02 -1.47359697e-02  1.68173855e-03
   3.99134577e-02 -5.92938087e-03 -1.09044358e-01 -1.47778974e-02
  -7.07635910e-03 -6.66710913e-02 -1.77921316e-02 -3.17196218e-03
  -2.31774461e-01  1.64952844e-02 -7.24898252e-03  1.58055906e-01
   4.80234599e-02 -1.45914014e-02  2.19431537e-03  1.75913733e-01
   0.00000000e+00  2.70596404e-01  1.99387519e-01 -7.19072716e-02
   3.85989853e-01  9.16030839e-02  1.07471873e-01  1.79386358e-02
   2.14548583e-01  1.74733125e-01  2.57498303e-01  0.00000000e+00
   1.04229262e-01  6.14596904e-03 -1.49841708e-03 -5.14776776e-02
  -7.39982458e-02  9.54570756e-03  2.06775794e-02  8.56162666e-03
   6.07929017e-03  3.24021023e-03  8.83931584e-02  0.00000000e+00
   1.59986034e-03  0.00000000e+00  0.00000000e+00  2.34667900e-01
   1.28930281e-01 -2.07652190e-03  4.48006950e-04  1.37959614e-02
   2.43254335e-01  7.65822530e-02  2.16429522e-02 -1.60255815e-01
  -2.19515183e-04 -8.08024978e-03 -1.00060836e-02  1.16048460e-01
  -3.40029777e-02  2.49370748e-04  6.17058141e-03 -3.31532976e-02
  -1.84618999e-02 -6.41274485e-02  2.42515919e-02  6.30901221e-01
   1.14568429e-02  9.13766115e-02 -2.13246789e-02  8.54880882e-03
  -1.48208075e-02  2.50463135e-02  7.58185282e-02  2.70044301e-02
   1.35039344e-02  1.39183985e-02  1.46413798e-01 -1.17748563e-02
   3.76728522e-03 -1.17352065e-03  3.08262168e-03 -6.34679496e-04
   9.47850352e-02  5.90758212e-03 -1.09424043e+00  1.39312223e-01
   3.67204854e-02 -5.91374008e-02  1.28648613e-01 -4.33652510e-04
  -4.47779142e-04  1.75027087e-03 -7.69139701e-01 -6.88663576e-03
  -6.71683268e-01 -2.31729595e-02 -1.59978064e-02 -3.31595970e-02]
 [ 7.21958764e-02  1.25815920e-02  5.76611301e-01  8.71948947e-02
  -1.57372642e-01  2.48886629e-01  2.84767309e-01  1.12636392e-01
   5.35564803e-02  0.00000000e+00  1.06061821e-01  1.37960631e-02
   0.00000000e+00 -1.85732336e-01  3.16675899e-02  3.79781700e-02
   3.42309465e-02  7.15137941e-03 -3.94579666e-02  2.52773239e-02
  -2.06440048e-02 -2.14888264e-02  1.11688130e-01  9.17150982e-03
   0.00000000e+00  9.86727375e-02 -5.44383620e-02  1.72845836e-02
   0.00000000e+00  0.00000000e+00  5.35564803e-02  9.56739320e-02
   3.98952048e-03 -9.86198325e-02  2.09464028e-03 -6.92044660e-02
   7.41296666e-02  1.40545297e-02  9.21377742e-02  5.18885599e-02
   2.58225226e-02  5.65110606e-02  4.48654882e-02  7.00219067e-02
   2.86755071e-02  3.55991020e-03  4.24448956e-03  3.47660926e-02
   1.11546460e-02 -2.51959192e-03 -6.94280106e-03  3.04294041e-02
  -9.47894434e-02  1.11691845e-02  3.91852750e-02  0.00000000e+00
  -9.01604372e-02  1.35973660e-01  2.51159580e-03 -5.12911786e-02
   1.78394917e-02  6.75673645e-03  1.30706044e-02  1.80731241e-02
   0.00000000e+00  2.70618859e-01  2.35354290e-01  4.53613424e-02
   4.33207698e-01 -3.42066566e-03  1.08838355e-01  4.35193708e-02
   1.96008417e-01  2.88370645e-01  1.71948379e-01  0.00000000e+00
   8.00642299e-02  1.61067123e-03  0.00000000e+00 -9.41762087e-03
   1.74722977e-02  1.17025787e-02  9.76434611e-03 -2.09612305e-02
  -5.61268612e-02  0.00000000e+00  3.72752439e-03 -1.97134162e-04
   0.00000000e+00  0.00000000e+00  0.00000000e+00  1.83071641e-01
  -7.93288165e-04  3.01405170e-02  0.00000000e+00  6.04531756e-02
   1.11495203e-01  1.14225202e-01  1.69067357e-02 -1.29177610e-01
   0.00000000e+00  2.08066531e-03  7.59971730e-03  9.32568200e-02
  -3.28544003e-03 -1.84401056e-02  6.07813969e-03 -4.13506369e-02
  -1.43250457e-02 -1.56354114e-02  1.57525253e-01  6.12937779e-01
   9.42769475e-02  7.91843936e-02  1.36498566e-02  6.02797666e-02
   0.00000000e+00 -1.29107931e-03  2.10333296e-01  5.34191445e-02
   6.16600416e-03  1.56869918e-03  2.11449315e-01  2.22973881e-02
   1.28493356e-02  5.95984714e-04  5.68348772e-03  0.00000000e+00
   7.39840505e-02  0.00000000e+00 -1.35500189e+00  2.64189040e-01
  -6.26348910e-03  2.40687917e-02 -1.06444849e-02  6.95701829e-04
   8.75659151e-04  2.54873218e-03 -8.33210320e-01  3.43636267e-02
  -9.78667585e-01 -5.34622116e-02 -2.73910637e-02 -5.93575994e-02]
 [ 2.04659702e-01 -5.50834899e-02  5.85605887e-01 -2.80035729e-02
  -4.08917738e-01  2.79125991e-01  1.90829361e-01  3.67920552e-01
  -1.55120314e-02  0.00000000e+00 -3.66029729e-02  1.49911996e-01
   0.00000000e+00  2.18526275e-02 -2.13072664e-01 -2.59628580e-02
   1.13391939e-01  6.13037528e-03 -6.67740094e-04  6.91378676e-02
  -2.00219796e-01  5.22651626e-01  5.71968966e-02  0.00000000e+00
   0.00000000e+00  6.73736169e-02  2.15189433e-01 -5.30460251e-02
   0.00000000e+00  0.00000000e+00 -1.55120314e-02 -2.74853158e-02
  -1.72763216e-02  1.82884900e-03 -1.88490720e-02  4.87608954e-02
   6.21660146e-02 -1.39374221e-01  1.02674218e-02 -2.34195445e-02
  -6.00427842e-02  1.57672125e-01  1.79355311e-02  2.87733860e-02
   9.00902342e-03  2.20617529e-02  1.16283219e-03 -3.34226267e-01
  -1.25921502e-02 -3.87842238e-02 -5.63848321e-03  1.62277136e-03
  -4.13328104e-02  6.55573413e-01 -5.56065352e-01 -1.50623213e-01
  -3.10634662e-01  8.85771159e-01  1.48046883e-02 -1.83627224e-02
  -3.94410427e-03 -2.93149006e-03  6.62266956e-03 -1.78382116e-02
   0.00000000e+00  6.19055907e-01 -1.28501983e-01 -1.35502584e-01
   4.39110185e-01 -1.15750218e-01 -2.06173439e-02 -1.70524209e-01
   1.18254375e-01  1.13823204e-01  7.60810503e-01  0.00000000e+00
  -4.82331212e-02  4.54654252e-03  0.00000000e+00  1.25683226e-01
  -2.59755220e-01  9.03582338e-03  1.13477083e-02 -2.18367422e-02
  -1.32358284e-03 -1.18711743e-03 -1.88272337e-02  1.26583856e-02
   0.00000000e+00  0.00000000e+00  0.00000000e+00  3.28412305e-01
   2.15217686e-01  1.58682842e-01  9.43498455e-03  3.57575148e-01
   3.93800371e-01  9.31076051e-02  3.17100355e-02 -5.08080357e-01
  -1.18648763e-03 -1.86186048e-02  2.82454169e-02  1.40030745e-01
  -6.08573361e-02 -9.59884390e-02 -1.84691305e-02  1.02050123e-02
  -6.25160570e-02 -8.21730586e-02  1.27538716e-01  1.13060244e+00
   1.41972936e-01  4.99629658e-02  4.04268923e-02  9.32642502e-02
  -4.55210869e-04 -1.21194542e-02 -3.04010270e-02 -6.55202805e-02
   1.90872408e-02  3.45346665e-02  5.91552460e-02  1.11994350e-01
  -8.95605891e-02 -6.59022779e-02  9.48341018e-05  0.00000000e+00
   7.85784933e-02  1.33484244e-02 -1.54488009e+00  6.74862203e-01
   5.86739791e-02 -1.37102587e-02  4.16524028e-01  2.01677310e-03
  -8.11031484e-03  1.40425502e-02 -1.28298028e+00 -1.88055657e-01
  -9.30355420e-01 -6.05128705e-02 -3.02641254e-02 -1.03801380e-01]
 [ 8.12814623e-02 -3.57738413e-02  6.70780387e-01 -3.51434344e-02
   8.97779244e-02  3.26284576e-01  3.32573538e-01  1.88688803e-03
   7.31596990e-02  0.00000000e+00 -5.48540524e-02 -1.62004038e-02
  -8.60198493e-04  6.48401166e-02  6.81716961e-02 -7.16735518e-02
  -7.39974380e-04  1.66132999e-02  8.58739103e-02  2.03712807e-01
  -1.64440645e-01  5.20893630e-02  1.22207084e-01 -4.92919033e-03
   0.00000000e+00  2.55976939e-02  1.35156010e-02 -4.69834694e-02
   0.00000000e+00  0.00000000e+00  7.31596990e-02  4.02988898e-02
   2.51955511e-02 -1.15190524e-02  9.81628199e-03  2.10872024e-03
   9.69904556e-02 -5.50011590e-02  2.56484841e-01  1.07323847e-02
  -1.79299190e-01  1.56033516e-02  4.91909106e-02 -6.32788186e-03
   1.95047406e-02 -1.61557247e-02  1.19332065e-02 -2.31592644e-02
   7.37334482e-03 -1.03045749e-02 -3.90372917e-02  2.35681917e-02
   7.81329846e-03 -1.88500019e-02 -1.16251750e-01 -3.50660985e-03
  -4.39211699e-02  1.67771519e-01  5.94506563e-03  7.99751042e-02
   6.58731090e-02 -5.72753729e-03 -1.03113239e-02  1.19984827e-02
   0.00000000e+00  3.00810660e-01  2.04651606e-01 -4.87751996e-05
   4.67565773e-01  2.96434019e-02  3.63932063e-02  7.66567866e-02
   1.91682888e-01  1.89822878e-01  2.75742149e-01  0.00000000e+00
  -1.34570748e-02  1.43997059e-02  2.48697311e-02  1.63102199e-01
  -1.51654562e-01  9.60355037e-03  1.65992965e-02  8.24715910e-03
  -4.46615847e-02  1.10983217e-02 -9.08319589e-02  0.00000000e+00
   0.00000000e+00  0.00000000e+00  0.00000000e+00  2.26012317e-01
   1.81032183e-01 -3.34221357e-02  1.69817507e-03  1.28873341e-02
   2.61156639e-01  6.55981094e-02  2.56352696e-02 -1.81337112e-01
   0.00000000e+00  7.89264036e-03  1.58218538e-03  9.95129925e-02
   5.91166981e-03 -9.83024543e-02 -3.18613527e-02 -2.09345741e-02
   1.84799805e-02 -5.47093742e-03  1.33511477e-01  6.31047805e-01
   9.61038315e-02  2.39749195e-01  2.71126310e-05 -2.09876921e-02
  -4.93405817e-03  3.82582785e-02  7.50054632e-02 -5.38354703e-03
   3.77083334e-03 -3.11395564e-03  1.60087864e-01  1.27889402e-02
   6.20372539e-03  9.18185092e-03  2.62615527e-03 -5.49905269e-03
   8.03866514e-02  0.00000000e+00 -1.19831189e+00  3.03875984e-01
  -9.13146452e-03 -3.62702453e-02  1.13803682e-02 -1.09878865e-03
   1.92288007e-03 -9.88909743e-03 -9.15836107e-01 -1.16150034e-01
  -9.56756919e-01 -5.99986688e-02  3.80664373e-02 -7.32044283e-02]
 [ 7.13005910e-02  8.45607041e-03  6.80180842e-01  3.53234154e-02
  -1.01327763e-01  2.90727500e-01  3.06915774e-01  9.39614720e-02
   1.24619423e-01  0.00000000e+00  7.12794359e-02  4.59065722e-02
   3.56734889e-03  4.93093574e-02  7.66781723e-02  1.75704010e-02
   2.79947115e-02  2.13237112e-02 -6.90695881e-02  1.89116488e-02
  -7.48419766e-02  1.01454897e-01  1.97204313e-01  1.80726641e-02
   0.00000000e+00  5.97468250e-02  4.81678075e-02  1.39847276e-02
   0.00000000e+00  0.00000000e+00  1.24619423e-01  8.20439888e-02
   3.08711919e-03  0.00000000e+00  0.00000000e+00 -9.17881245e-02
   8.33410916e-02 -2.29689418e-01  2.30644051e-01  5.53732045e-02
  -9.77410697e-03 -9.75960326e-02  3.26147973e-02  2.65009576e-02
   6.00942612e-03  4.77207580e-03 -2.29536277e-02 -1.09364767e-01
   1.31482059e-02  5.88259270e-03 -1.02436899e-02  3.72464006e-03
  -3.82750466e-03 -1.09289459e-01  8.35467820e-03 -1.55686006e-02
  -5.00289707e-02  1.00708846e-01  2.25511060e-02  8.53751486e-02
   6.21031568e-03 -2.76714788e-04  1.44241875e-02  2.99782993e-02
   0.00000000e+00  2.45887679e-01  1.63388929e-01  2.25002545e-02
   5.04546603e-01  2.94780254e-02  4.18904827e-03 -4.28533632e-03
   2.24200728e-01  3.40008591e-01  2.56300186e-01  0.00000000e+00
   4.50112512e-02 -8.40519480e-04  1.13964788e-02  5.91930377e-02
  -7.36536393e-02 -2.11528774e-03 -5.19518062e-02 -1.35226608e-02
  -1.94725641e-02  5.46675482e-04  2.61069596e-02  2.43623767e-02
   0.00000000e+00  0.00000000e+00  0.00000000e+00  1.96919967e-01
   9.62648129e-02  8.86063397e-03  0.00000000e+00  4.04238668e-02
   2.15876319e-01  5.66931715e-02  1.75577899e-02 -1.69366413e-01
   0.00000000e+00  0.00000000e+00  3.09256917e-02  1.93731328e-01
   4.18477405e-02  2.58383128e-03 -6.71159986e-02  4.72337649e-02
   5.07961329e-03  3.25855854e-02  1.36720831e-01  4.59609565e-01
   7.37780613e-02  5.19681263e-02 -6.56174868e-03  5.99579535e-02
  -1.03007887e-02  1.46531822e-03  2.51784441e-01 -3.33417599e-02
   2.50510792e-02 -3.22748030e-03  3.00543266e-01  8.53231588e-03
   2.25326250e-02 -9.28037439e-02  0.00000000e+00  0.00000000e+00
   1.01232053e-01  0.00000000e+00 -1.28587795e+00  1.04805086e-01
   2.45881632e-02 -6.99004309e-02  1.16756776e-01  5.03113811e-04
  -7.44189133e-04  5.61286349e-03 -8.00347357e-01 -1.61828702e-02
  -8.33998857e-01 -8.14574618e-03  4.73347633e-02 -5.63666110e-02]
 [ 5.50278410e-02  5.79190090e-02  4.98792004e-01 -7.28067031e-02
   9.57296557e-02  1.50934600e-01  4.26664208e-01  1.86874988e-01
  -7.45709686e-02  0.00000000e+00 -1.37237783e-01 -3.92683215e-03
   1.55445795e-03 -5.36899285e-02 -7.14860740e-02 -4.67011253e-03
   8.38123768e-03  6.32177367e-02 -1.06816852e-01  2.03548170e-01
   8.88269116e-03  9.98520623e-02  2.55930152e-01  3.34681583e-02
   0.00000000e+00 -9.23932192e-02 -1.26560966e-01 -1.15885709e-01
   0.00000000e+00  0.00000000e+00 -7.45709686e-02 -1.19609022e-01
  -1.11662416e-01 -2.44006072e-03 -1.71893593e-02 -2.44396278e-02
   5.08402579e-01 -2.51484356e-01  7.28689315e-01 -6.24730124e-03
   5.24215778e-02 -3.20833306e-02  3.35405554e-01  1.17814862e-02
  -1.04142596e-02 -1.57306721e-02 -2.56446393e-01 -4.69526783e-02
   1.93306375e-02 -4.08065891e-02  5.26009047e-02  7.51274565e-03
  -3.00029208e-02  5.47945089e-03  2.18006195e-02  1.97801094e-02
  -1.71843075e-01  1.43537347e-01 -1.04304939e-01  4.20584132e-02
   2.85683970e-02  1.73540928e-03  6.31266260e-02  1.73243402e-03
   0.00000000e+00  4.06856325e-01 -1.30876794e-01 -1.14872276e-01
   4.74390319e-01  8.58001409e-02  3.16454836e-01 -1.80919149e-01
   5.81735770e-01  1.19780821e-01  1.69305385e-01  0.00000000e+00
  -7.77381287e-02  1.57787061e-03 -3.57655685e-03  1.55057411e-01
  -1.98620498e-01  2.25979675e-02  1.98065767e-02 -1.08402329e-02
  -1.95836301e-02  0.00000000e+00 -2.40278455e-02  3.50341469e-03
   0.00000000e+00  0.00000000e+00  0.00000000e+00  5.73977973e-01
   8.29741588e-01 -3.36428731e-02 -1.15897799e-03  2.06532833e-03
   1.68399035e-01 -2.66109500e-02  2.08592941e-02 -1.35355380e-01
   2.54777419e-02 -5.10600023e-02  3.01967364e-02  1.92101615e-01
  -1.66684983e-02  1.26533987e-01 -2.61107546e-02 -3.50090157e-03
   9.21784431e-03 -2.19057734e-02  1.48267193e-01  6.28295245e-01
   6.93537194e-03 -7.50870463e-02  6.44187234e-02 -4.37105853e-02
   3.26857427e-03 -3.39490223e-02 -8.96251739e-02 -2.85688112e-03
   1.72500591e-02 -7.61005586e-02  3.48666966e-01  9.02927008e-03
  -6.71362445e-02 -6.55829724e-03  1.25158683e-03  7.85859728e-03
  -2.56918115e-02 -1.71193011e-02 -1.63821722e+00  5.10604728e-01
   2.93644626e-02  8.53198152e-04  8.80603297e-02  3.23864845e-03
  -6.23398485e-03  2.78036101e-02 -9.25065937e-01  9.47026840e-02
  -7.11611348e-01 -8.58282416e-04 -1.09182499e-03  1.71551006e-03]
 [ 1.78737532e-01 -2.53379749e-02  6.98855395e-01  1.37762136e-01
   2.68685278e-01  3.31341616e-01  2.79777896e-01  1.00390574e-01
   8.30184899e-02  0.00000000e+00 -6.57763849e-02 -1.95980739e-02
   0.00000000e+00  1.56214441e-02 -3.33620910e-03  0.00000000e+00
   3.89984872e-02  3.60120698e-02 -4.07506023e-02  4.81091920e-02
  -2.32686408e-01 -1.48664655e-02  1.20927761e-01  1.06450692e-02
   0.00000000e+00  6.57740311e-02  7.67669110e-02  3.17023471e-02
   0.00000000e+00  0.00000000e+00  8.30184899e-02  3.93698477e-02
   2.38595856e-02  2.45153812e-03  3.94670646e-03  1.40934739e-01
   8.65092039e-02 -1.53063400e-01  1.89097687e-01  1.09114383e-01
  -1.33235226e-01 -2.67982579e-02  8.24105765e-02 -1.87802043e-04
   7.78663196e-03  1.78531445e-02  2.81627034e-02 -1.11324859e-02
  -4.46585786e-04 -3.26125828e-02  1.52481961e-02  2.35491524e-02
  -7.35724329e-02  1.58774151e-01  5.23686712e-02  1.60871726e-02
  -1.91118582e-01  9.70590724e-02  3.94994683e-02  1.02016453e-02
  -2.15370865e-02  1.57275796e-02  4.49632464e-02  8.26962574e-02
   0.00000000e+00  2.66403359e-01  1.20408005e-01 -5.84570086e-02
   5.24334485e-01  6.77090505e-02  7.18675596e-02  1.03236148e-01
   1.62879533e-01  2.87627712e-01  2.40785183e-01  0.00000000e+00
   9.29303691e-02  1.07565204e-03  2.89829427e-04  1.92822838e-02
   3.89882526e-02 -4.53867512e-03 -3.39108409e-02 -1.59074943e-02
  -1.78062453e-02  0.00000000e+00 -1.35865096e-02 -4.37567245e-04
   0.00000000e+00  0.00000000e+00  0.00000000e+00  1.29629438e-01
   2.70884186e-02  2.46042457e-02  2.36245459e-02  1.77997198e-02
   1.99360917e-01  1.38819266e-01 -2.94690758e-03 -2.75920707e-01
   5.87458516e-03 -5.85045507e-03 -3.87064009e-02  1.08758884e-01
  -3.36659138e-02 -2.31290838e-02  6.21862023e-03 -1.43445129e-02
  -4.38592228e-03 -2.48221650e-02  8.09977121e-02  4.92924602e-01
   9.93752574e-02  5.67975247e-02 -1.15646624e-03  1.12027786e-02
   2.38165325e-03  3.50717320e-02  3.43430694e-01 -3.38730004e-02
   1.91416216e-02  6.78373121e-03  1.59611470e-01  4.22785579e-03
   6.75361031e-02  1.52575737e-03 -1.96580322e-03  0.00000000e+00
   1.04601499e-01  0.00000000e+00 -9.78471773e-01  1.11714073e-02
   5.01319500e-02 -6.54683657e-02  3.08016200e-01  3.47422273e-03
  -1.05439479e-03  2.35761050e-02 -6.00458308e-01 -2.06695763e-02
  -3.47105516e-01 -1.18169713e-02  1.08022724e-02  1.52971966e-02]
 [ 1.35494070e-01 -1.12997245e-02  6.76022889e-01 -7.94832995e-03
  -6.85405936e-02  2.92847995e-01  3.23690973e-01  5.78735286e-02
   8.34720715e-02  0.00000000e+00  1.20325079e-02  2.67226321e-02
  -6.53656940e-03 -6.44564407e-03  7.48155245e-03  1.20560585e-02
   4.74304800e-02  1.42887805e-02  6.73088258e-02  1.79818489e-01
  -1.33196566e-01 -5.16406329e-02  2.85217955e-01  1.02938638e-02
   0.00000000e+00  3.12295833e-02  3.76466495e-02  7.69057235e-02
   0.00000000e+00  0.00000000e+00  8.34720715e-02 -2.76498925e-02
   3.51856604e-03  3.37175586e-03 -4.61042944e-03  2.74257149e-02
   8.98188977e-02 -1.61640763e-01  2.46668594e-01  4.64218801e-04
   1.09900344e-02 -2.34508826e-02  2.72489872e-02  3.28106330e-02
  -9.54758301e-02  2.30994552e-03 -6.67597064e-03 -9.89247564e-03
  -3.50587521e-03 -9.18159825e-03 -2.94007557e-03  7.62463695e-03
   1.68815005e-02  6.30394638e-03 -6.20186555e-02  1.72998247e-02
  -1.82671697e-01  1.53601282e-01 -9.18581646e-05  1.24903943e-02
   2.45340619e-02 -4.59397177e-02  1.78130222e-03  1.44002328e-02
   0.00000000e+00  2.32543710e-01  1.73830901e-01 -9.66441214e-02
   5.78549815e-01  1.67173660e-02  7.13289496e-02  8.22773752e-02
   2.03027145e-01  2.03469944e-01  2.69110103e-01  0.00000000e+00
   6.93300634e-02 -6.52343194e-03  2.42064592e-03  4.86353674e-02
  -8.00471975e-03  6.97846770e-03  1.00731412e-02 -5.94201558e-03
   4.97789692e-03  0.00000000e+00  1.30259682e-02  0.00000000e+00
   0.00000000e+00  0.00000000e+00  0.00000000e+00  2.63066768e-01
   8.55691256e-02 -7.87544225e-03  6.71470384e-03  3.20329113e-02
   2.30362488e-01  4.51528353e-02  1.10682109e-02 -2.24222081e-01
   0.00000000e+00 -3.43888542e-03 -1.58987458e-02  9.81201474e-02
   4.70382352e-03 -5.58227414e-02 -4.92104695e-03 -6.60112491e-03
   1.27085198e-02 -6.89328897e-03  9.68926440e-02  6.23377866e-01
   6.10632440e-02  9.43022956e-02 -9.52247478e-02  8.88139698e-03
   1.80796429e-02  2.49262742e-02  9.85352983e-02  1.52558157e-02
   1.25409675e-02  2.08067078e-03  1.96618676e-01  6.10947812e-03
  -3.79807265e-04  1.15204583e-03  5.39377894e-03  0.00000000e+00
   4.49564634e-02  0.00000000e+00 -1.05547500e+00  2.22493896e-01
   9.86338481e-03 -2.70983508e-02  6.76023734e-02  3.55165101e-05
   1.00024944e-04  1.38482711e-04 -7.15007199e-01 -5.53007865e-02
  -7.82110731e-01  2.49929616e-04 -3.19686695e-03  5.68048630e-03]
 [ 1.92645837e-01  6.90836516e-02  6.64797902e-01 -7.92344325e-02
  -4.22496351e-02  1.76573089e-01  3.12039723e-01  8.80871653e-02
   5.35876619e-02  0.00000000e+00 -9.74782674e-02  1.27001806e-03
  -8.39609914e-03 -8.68017991e-02 -6.61591739e-02  2.26096364e-02
  -5.25969929e-03  1.36644426e-02 -2.15544075e-02  7.09756700e-02
  -1.19846508e-01 -5.92048126e-02  2.21139370e-01 -8.94113180e-04
   0.00000000e+00  4.27720491e-02  2.64806647e-02  8.47904633e-02
   0.00000000e+00  0.00000000e+00  5.35876619e-02  1.10527680e-01
   2.12937131e-02 -1.40797446e-02 -7.79119394e-04 -6.01475838e-02
   1.31477117e-01 -1.05484197e-01  2.54505890e-01  6.30233068e-02
  -1.23514177e-01 -1.03183195e-01  4.68935000e-02  1.15052596e-01
   1.92807766e-02  1.04245290e-02  1.23870913e-02 -1.79480794e-02
   5.73072029e-02 -1.09754503e-02 -3.67297688e-02  5.75490570e-03
  -1.72574972e-02 -5.85924906e-02 -6.37186208e-02 -6.50848231e-03
  -2.68513431e-01  1.66999127e-01  3.60280744e-02  5.82466466e-02
   2.50772860e-02  5.70730496e-02  7.23611164e-02  1.82310771e-01
   0.00000000e+00  3.89277106e-01  1.29946075e-01 -1.10723161e-01
   5.10633928e-01  5.02659139e-02  7.39806768e-02  5.97107985e-02
   1.82230106e-01  7.99306321e-02  3.08416102e-01  0.00000000e+00
   4.46158322e-02  2.16851742e-02  1.06524127e-02  4.74629668e-02
  -6.03014078e-02  2.49244371e-02 -5.76410485e-03 -1.49736694e-02
  -4.62804298e-03  1.89725273e-02  9.73768907e-02  8.04250796e-05
   0.00000000e+00  0.00000000e+00  0.00000000e+00  2.02244734e-01
   5.18351418e-02 -1.13881049e-02  3.61827764e-03  5.87369503e-02
   2.46060874e-01  8.22065355e-02  1.46948931e-02 -1.90365720e-01
   0.00000000e+00 -5.70532906e-03 -5.77616716e-03  1.15069678e-01
  -4.22582122e-04 -5.36948787e-02 -5.89056150e-02 -2.65008218e-02
  -2.78584729e-02 -8.07971310e-03  6.85045948e-02  6.55730355e-01
  -9.02045408e-03  1.09454999e-01 -5.88037477e-03 -1.85271940e-02
   3.30146888e-03 -5.68369618e-03  4.79958003e-02  4.24493926e-03
  -1.40899196e-02  2.19105126e-02  1.82430212e-01  2.50918846e-02
   6.02695810e-02 -2.05758566e-02 -8.29922052e-03  0.00000000e+00
   3.18205237e-02 -1.25799896e-04 -1.06413784e+00  2.04532680e-01
   3.07304029e-02 -7.93888282e-02  9.61587647e-02  1.20152649e-04
  -1.10924017e-04  2.57200988e-03 -9.30672235e-01 -5.33348863e-02
  -8.00128485e-01 -5.31741349e-04 -2.19817057e-03 -5.88255971e-03]
 [ 5.84654291e-02 -3.67261749e-02  6.78627485e-01 -1.54474884e-02
  -1.05770029e-01  3.20737075e-01  3.37305296e-01  4.22601899e-02
   6.37457056e-02  0.00000000e+00 -2.41368564e-02  1.15408376e-02
   9.79059893e-03 -5.70380426e-02  3.73810098e-02 -2.78994390e-04
   2.47588871e-02  8.99845250e-03 -1.75795331e-01  1.86371731e-01
  -1.01765685e-01  3.03561294e-02  1.67388812e-01 -1.70756835e-03
   0.00000000e+00  1.53642910e-02  4.03091042e-02  1.03412813e-01
   0.00000000e+00  0.00000000e+00  6.37457056e-02 -2.08565487e-02
   9.38077040e-03  2.62390789e-02  5.99213378e-04 -3.20830923e-02
   1.12618424e-01 -1.15903571e-01  2.87837439e-01 -1.25071845e-03
   3.73442234e-02  4.15566512e-02  4.75968578e-02 -5.89059469e-04
   2.14553152e-02  5.58586902e-04  5.02668940e-03 -4.69642949e-02
   1.24472921e-02  3.22727842e-03  2.08971161e-02 -1.21495090e-02
   2.80212131e-03  4.17919845e-02 -6.72296707e-02 -1.01521942e-01
  -1.33169444e-01  2.19961261e-01  1.52720586e-02 -1.15659992e-03
   2.39159098e-02  5.32727610e-03 -8.36714424e-04  2.32079889e-02
   0.00000000e+00  2.64483372e-01  1.86705092e-01 -7.80761835e-02
   5.66306661e-01  5.25541881e-02  8.50844142e-02  3.42940111e-02
   2.32095552e-01  2.52141922e-01  2.45516782e-01  0.00000000e+00
   4.71413611e-02  5.00615508e-03  6.46386329e-04  2.12613316e-02
   2.35114926e-03  2.09698311e-03  1.42473902e-02 -1.65122819e-03
  -5.69734680e-02  3.60108443e-03  1.70509460e-02 -1.31226485e-03
   0.00000000e+00  0.00000000e+00  0.00000000e+00  2.27165972e-01
   6.07543390e-02 -8.59965530e-03  0.00000000e+00  1.31356697e-02
   2.32381112e-01  2.57149050e-02  3.48377896e-03 -2.23753969e-01
   0.00000000e+00  9.17624308e-04 -5.90505547e-03  1.04248853e-01
  -1.54450304e-02 -1.72005068e-02 -2.23711408e-02  5.81652365e-03
  -2.80108818e-03  2.71313791e-02  6.68175018e-02  6.90958699e-01
   5.96101158e-02  1.14942022e-01 -4.61477257e-03 -8.12440900e-03
   0.00000000e+00  2.95559574e-02  7.60222502e-02  1.74229420e-02
   2.33916996e-02  9.84441315e-03  2.05559439e-01  1.88104110e-04
   1.00999531e-02  4.41753996e-03  0.00000000e+00  0.00000000e+00
   5.21182992e-02  6.62886003e-03 -1.04892988e+00  2.31818745e-01
   1.75030142e-02  8.78118099e-02  2.07218071e-02  5.92747679e-04
   1.56419524e-03  1.72576015e-03 -6.86271173e-01 -1.59142536e-01
  -7.11722688e-01 -1.92904702e-03  1.72003770e-03 -2.55302242e-03]
 [ 1.46031870e-01 -2.52593066e-02  7.34097305e-01 -3.65715747e-02
  -6.04336491e-02  3.24151228e-01  3.35872517e-01  5.33108137e-02
   6.52184009e-02  0.00000000e+00 -1.85920664e-02 -7.97414044e-02
   3.73866782e-03 -7.45548630e-03 -2.24130985e-02  1.10551621e-03
   1.75783982e-02  1.50634671e-02 -2.14970976e-02  1.77550077e-01
  -2.53077293e-02  1.28057498e-02  2.04254103e-01 -1.12459849e-02
   0.00000000e+00  9.48437797e-03 -1.63497226e-02  4.95122617e-02
   0.00000000e+00  0.00000000e+00  6.52184009e-02 -1.06857994e-02
  -5.33123333e-03  4.59956719e-03  3.50817499e-03 -2.82352429e-02
   1.83424034e-01 -1.10674064e-01  2.31177534e-01  8.04969357e-02
  -3.54980745e-02 -4.43760797e-02  1.10514756e-01  2.97792106e-02
   1.67600059e-02  1.79728285e-02 -1.91899115e-02  5.91791935e-03
   3.19095857e-03  1.84267994e-02  1.93119508e-03  1.27899369e-02
   3.98640720e-03 -2.71041090e-02 -4.15428527e-02 -9.44457250e-04
  -2.24058000e-01  1.13731032e-01  3.71915865e-03  9.62773931e-02
   2.60068042e-02 -7.15109076e-03  1.92972311e-02 -3.87243714e-03
   0.00000000e+00  2.85198148e-01  1.22930778e-01 -4.85279661e-02
   5.51446450e-01 -2.22264998e-02  1.39111583e-01  1.00379593e-01
   2.62581353e-01  1.64995467e-01  2.50596547e-01  0.00000000e+00
   2.73119667e-02  1.45625669e-02  1.32404853e-02  1.43327793e-03
  -6.80033281e-02  4.26328150e-03  1.75330955e-02  4.55766176e-03
  -9.68097769e-02  1.14166013e-02  1.06716628e-01  7.60606857e-04
   0.00000000e+00  0.00000000e+00  0.00000000e+00  2.19824003e-01
   5.86608107e-02 -3.04103816e-02  0.00000000e+00  2.10312618e-02
   2.29565285e-01  1.14211694e-01  4.79812054e-02 -1.67158235e-01
  -7.71082940e-03  1.79626523e-03  9.08711760e-02  6.95275323e-02
  -1.46134058e-02  2.57858784e-02 -5.18352293e-03 -9.47500594e-03
   7.42187240e-04 -2.82025232e-02  2.97200755e-02  6.46178873e-01
   4.71129796e-02  1.37411683e-01  1.26648409e-02 -1.25222399e-02
  -3.85675005e-03  6.42388921e-03  1.54947004e-02  4.74782526e-02
   1.00211540e-02 -3.58312259e-02  2.66439137e-01  5.34133286e-03
  -1.09964694e-02 -2.07604691e-02 -7.94103435e-03  2.84136576e-03
   7.12762694e-02  1.85503956e-03 -1.08402491e+00  3.24366108e-01
   6.30349732e-03 -5.84617600e-02  2.37807874e-02 -5.03747411e-04
  -2.45532164e-03 -1.46789194e-03 -7.52255740e-01 -5.46394792e-02
  -7.47517392e-01 -1.39614099e-02 -3.70235897e-03 -5.85369799e-03]
 [ 5.66227638e-02  5.11620765e-03  6.24266646e-01 -6.48759156e-03
   2.26946936e-02  1.90177187e-01  3.73499851e-01  9.27733573e-02
   2.52433656e-02  0.00000000e+00 -8.37310817e-02  3.92982137e-03
   0.00000000e+00  1.86761965e-02  4.31779744e-02 -9.20484053e-03
   3.39062667e-02  1.60251152e-02 -1.27814037e-01  1.19258907e-01
  -8.03184191e-02  8.09401070e-02  1.67026777e-01 -7.51557958e-03
   0.00000000e+00  4.87160862e-02  2.68294368e-02  6.75296184e-02
   0.00000000e+00  0.00000000e+00  2.52433656e-02  9.53206110e-02
  -5.66582107e-05  8.52011661e-04  0.00000000e+00  2.73555651e-02
  -4.11417852e-02 -7.85079748e-02  1.99546315e-01  6.88408706e-02
   1.01714642e-02  3.02608654e-03  4.34953309e-02  4.70894007e-02
   2.34511364e-03  5.47299069e-03 -2.39816094e-02  4.94640687e-02
   6.62034140e-03 -1.12020393e-01  9.84051992e-03 -1.65255156e-02
   5.53286326e-03 -1.34987203e-02 -6.00179704e-02 -4.24657916e-05
  -1.26384817e-01  9.74992598e-02  7.42443277e-03  1.17476868e-02
   2.86719838e-02  0.00000000e+00  1.17841015e-02  7.90949388e-02
   0.00000000e+00  1.88937953e-01  2.29572094e-01  7.22378063e-03
   4.72253595e-01 -7.23669920e-02  1.32232584e-02  5.83257556e-02
   2.58916727e-01  2.85632867e-01  7.88184117e-02  0.00000000e+00
   3.46541764e-02  0.00000000e+00  0.00000000e+00  9.34935332e-02
   1.68024595e-02  1.40421438e-02 -8.36265807e-04  1.09806789e-03
  -4.57670966e-02  1.26301355e-03  2.79314501e-02  0.00000000e+00
   0.00000000e+00  0.00000000e+00  0.00000000e+00  2.07142097e-01
   1.04926814e-01 -5.11494832e-03  7.43328452e-03  2.54321273e-03
   6.88419144e-02  4.57734853e-02  1.94871310e-02 -2.00050010e-01
   0.00000000e+00  8.11217407e-03 -3.12669524e-03  7.47842324e-02
   3.39932812e-02 -3.23938533e-02 -5.76130890e-03 -1.57466593e-02
  -4.63972942e-03 -1.28635868e-02  6.15844007e-02  6.35958016e-01
   2.40462902e-02  8.20371348e-02  5.78869892e-03  1.34265553e-02
   2.39912246e-03 -2.49061999e-02  1.59959907e-01  3.74770611e-02
   0.00000000e+00 -3.67714680e-03  2.48542878e-01  5.25029677e-03
   2.70442409e-02  1.64130498e-04  5.49790304e-03  1.81078680e-04
   7.49716691e-02  0.00000000e+00 -1.11007459e+00  2.46041292e-01
   1.87355425e-02 -3.09199395e-02  1.21956881e-01  2.12052205e-03
   8.95699649e-03  1.72292414e-02 -7.34921602e-01  6.48126874e-02
  -7.66435409e-01 -5.90634571e-02 -1.82156085e-02 -6.31729957e-02]
 [ 3.47727237e-02 -1.46379448e-01  5.41817927e-01  1.99085471e-02
  -1.92215030e-02  2.77640960e-01  1.88777024e-01  1.01570511e-01
   3.92683556e-02  0.00000000e+00  1.07517952e-01  5.13626962e-02
   0.00000000e+00 -2.40695800e-02 -1.95705780e-01  1.65870404e-02
   2.26755221e-02  3.79577643e-02  2.06370049e-02 -1.63228672e-02
  -1.70287481e-01 -2.03776029e-02  3.45730638e-02  2.01314862e-02
   0.00000000e+00 -1.06379332e-02  5.83431215e-02  2.11243743e-02
   0.00000000e+00  0.00000000e+00  3.92683556e-02  8.53165723e-02
  -1.09099934e-03  6.82141064e-03  0.00000000e+00  2.09961287e-02
   1.37851665e-01 -1.12861606e-01  2.12884872e-01  2.88820307e-02
   2.35986345e-02 -1.24396514e-01  5.01918834e-02  4.07513934e-02
  -4.29665825e-03  1.24647849e-02  2.22585471e-03  1.55857944e-02
   1.70770988e-02 -3.79251315e-03  3.47908393e-03 -4.81305923e-03
  -1.83067321e-02 -1.83416029e-02  4.76607948e-02  7.29039300e-03
  -7.09506070e-02  2.09426732e-01 -8.08353231e-02  6.15072848e-02
  -5.48300589e-03  1.31405318e-02  4.17186828e-02  2.07767087e-02
   0.00000000e+00  1.17257595e-01  1.29081255e-01 -6.09918756e-02
   4.55250950e-01  1.39769280e-01 -8.06775829e-02 -1.99081055e-01
   3.36968750e-01  2.19267558e-01  2.50101597e-01  0.00000000e+00
  -7.75352203e-02  0.00000000e+00  0.00000000e+00 -1.03035472e-01
  -8.20713424e-03 -7.61437435e-04 -7.58489928e-04  4.91394300e-03
   4.13920815e-02  0.00000000e+00  3.58730667e-03  0.00000000e+00
   0.00000000e+00  0.00000000e+00  0.00000000e+00  2.65618011e-01
   1.47314316e-01  5.07501928e-02  0.00000000e+00  2.82214298e-02
   2.21880167e-01  1.22229241e-01  2.85411556e-02 -4.58009059e-02
   0.00000000e+00 -4.24294522e-03  8.10753449e-03  6.29502936e-02
  -1.38950956e-02  2.02012770e-02  1.42600556e-02 -4.03704542e-02
   1.31006102e-02 -1.13978601e-01  1.26006805e-01  3.18692167e-01
   7.18764663e-02  1.00559568e-01  5.99695584e-03 -1.71515953e-02
  -1.29856361e-01  1.30222627e-02  3.03260199e-01  5.06957552e-03
   1.96694754e-02 -2.37499771e-03  3.01634484e-01  1.79070434e-02
  -1.82896686e-02  5.16742055e-03  7.10718548e-03  0.00000000e+00
   8.73319198e-02  0.00000000e+00 -1.23285391e+00  1.64347201e-01
   1.11337627e-02 -3.95042442e-02  1.08793784e-02  0.00000000e+00
   0.00000000e+00  0.00000000e+00 -7.42723009e-01  1.45326026e-01
  -7.76462426e-01  4.52737825e-03 -4.24550511e-03  9.61135506e-03]
 [ 5.15233810e-02 -6.28836852e-02  6.44692741e-01 -3.14995551e-02
   1.08066125e-01  2.73617995e-01  3.42779054e-01  4.77991650e-02
   5.94100757e-02  0.00000000e+00 -8.67307752e-02  2.18805679e-02
  -1.58090808e-02 -1.79441054e-03  5.31038620e-02  8.85249093e-03
   1.11610838e-02  2.07641972e-02  1.80566916e-01  1.74836148e-01
  -1.80787197e-01 -1.31523014e-01  1.60445180e-01  1.81165587e-03
   0.00000000e+00  8.67410574e-02  5.78834809e-02  7.68994961e-02
   0.00000000e+00  0.00000000e+00  5.94100757e-02 -9.64489548e-03
   1.10771144e-02  4.90387542e-03 -5.58444257e-04  1.68780718e-02
   1.67205675e-01 -1.43369428e-01  2.10248106e-01  1.21864340e-02
  -1.34674981e-01 -2.37415338e-03  6.34595280e-02  5.28176469e-02
  -1.00609802e-01  2.58910202e-02  1.84316862e-02 -3.12276000e-02
  -1.17750691e-02  1.09136419e-02 -2.38317671e-02 -4.38771577e-04
   1.54274113e-02  2.64610718e-02 -6.27342900e-02  1.41725191e-03
  -1.61405649e-01  1.99711374e-01  1.10653563e-02  6.80584006e-03
   6.73419242e-02 -1.45007200e-02 -2.01940354e-02  2.09911312e-02
   0.00000000e+00  2.36986335e-01  1.56918238e-01 -8.27738051e-02
   5.10433905e-01  8.05195351e-02  1.04901955e-02 -1.27136568e-01
   2.68385949e-01  2.71660881e-01  3.10696029e-01  0.00000000e+00
   6.27685179e-02  5.06476665e-03  2.09842808e-04 -7.47478534e-03
   1.67849649e-02  2.17112912e-02  1.77570835e-02  8.10903832e-03
  -1.28742742e-02  2.04367853e-02  2.42317494e-02  5.63432714e-04
   0.00000000e+00  0.00000000e+00  0.00000000e+00  2.29877696e-01
   5.73926567e-02 -8.00816225e-02  1.60384363e-02  1.78784447e-02
   2.76779148e-01  2.80488899e-02  8.08394663e-03 -1.44332271e-01
   3.28636630e-04 -1.08811035e-02  5.46979541e-03  1.61159509e-01
  -4.01668026e-03 -4.63693928e-02 -1.10477804e-01 -8.85319599e-02
   1.48932947e-03  3.04946184e-03  1.36658430e-01  6.37301067e-01
   6.54883384e-02  1.38220429e-01  3.69096862e-03  3.44572657e-02
   1.24775547e-02  3.55359918e-02  1.51535937e-01  1.08217731e-02
   2.19945045e-02  1.55745101e-02  2.78599695e-01  1.07937318e-03
   2.55168356e-02  5.06676284e-05  4.46128098e-03  0.00000000e+00
   1.22329843e-01  4.70790492e-03 -1.45508961e+00  2.01357888e-01
   1.57803166e-02 -8.25054414e-03  7.44026706e-02  3.17897169e-04
   5.96057169e-04  1.03151003e-03 -9.30835344e-01 -5.36299685e-02
  -9.67208545e-01  2.33212427e-03 -1.47146764e-03  1.85467397e-02]
 [-2.22148263e-02 -8.48422395e-02  4.03248760e-01  1.36011314e-01
  -1.36145182e-01  2.58319615e-01  2.47173855e-01 -3.35373288e-02
   3.77964189e-02  0.00000000e+00  1.41352189e-01  5.32726841e-02
   0.00000000e+00 -7.95908224e-02  7.29204330e-02 -3.42548904e-03
   4.62418518e-02  1.93112053e-02 -2.22036970e-02 -2.44621957e-01
  -6.43640754e-02 -3.00557464e-02  1.43977887e-01  1.30780558e-02
   0.00000000e+00  6.02812426e-02 -6.53633056e-02 -1.31165047e-01
   0.00000000e+00  0.00000000e+00  3.77964189e-02  4.41466487e-03
   2.08915857e-02 -8.76351739e-03  5.76044868e-03 -2.51424842e-02
   8.96576022e-02  1.12986180e-01  2.00573271e-01  6.65895833e-02
   1.05679937e-02 -5.35627326e-02  2.85732485e-03  3.03598045e-02
  -3.41625418e-03  0.00000000e+00 -1.04148413e-02  1.90974222e-04
   1.13136763e-02  1.41802720e-02  2.46733425e-02  1.07518490e-04
   3.93994277e-02 -1.48428654e-01  7.11469078e-02  0.00000000e+00
  -2.93078725e-02  3.39637605e-02  1.11584838e-02  8.76286740e-03
   2.23954660e-02  1.34583919e-03  2.46885739e-02  3.33615208e-02
   0.00000000e+00  2.14502644e-01 -2.98675041e-01 -4.05257474e-02
   3.41017653e-01  2.24610460e-02 -4.93395389e-02 -6.66102733e-03
   5.56644512e-02  3.13877117e-01  1.46872020e-01  0.00000000e+00
   4.57269618e-03  0.00000000e+00  0.00000000e+00  9.37069030e-02
   9.30329236e-03 -1.01676519e-03  0.00000000e+00 -6.30184564e-04
  -6.15373152e-02  0.00000000e+00  9.97508697e-03  0.00000000e+00
   0.00000000e+00  0.00000000e+00  0.00000000e+00  1.31740858e-01
   1.00994454e-01 -2.30775573e-02 -2.49853240e-02 -7.36575115e-02
   2.45514855e-01  1.44961929e-02  8.36342071e-02  1.69029201e-01
   0.00000000e+00  1.65319050e-02  5.97301808e-02  1.11442088e-01
   1.56430397e-02  1.68286018e-02  1.27301369e-02  1.49743956e-02
  -8.32886625e-03  6.84247367e-03 -7.79053953e-02  1.20001425e-01
   4.28803738e-02 -5.06494579e-02 -2.91437257e-02  3.65429285e-02
   0.00000000e+00  8.16733928e-03  3.54254191e-01 -7.85907968e-02
  -5.69053943e-03 -9.26330989e-02  2.28069099e-01  3.32215881e-03
   1.77630018e-02 -4.23203158e-02  0.00000000e+00  0.00000000e+00
   1.38310567e-01  0.00000000e+00 -9.87082239e-01  1.67102854e-02
   7.55181819e-03 -1.88579313e-02  7.02513496e-02 -1.31179541e-03
   2.32297095e-03 -4.73476159e-03 -6.45577002e-01 -7.24289043e-02
  -6.54598696e-01 -6.05445779e-02  3.25723328e-02 -7.52043382e-02]
 [ 6.81964203e-01  1.06892620e-01  6.54393588e-01 -1.00441587e-01
  -6.48885059e-02  2.24664452e-01  4.85311428e-01 -3.61848558e-02
  -7.36620057e-02  0.00000000e+00 -1.57521747e-02  7.49692931e-04
   0.00000000e+00 -3.14321972e-03 -1.78645413e-01  6.34513972e-03
   1.27360627e-02  1.15267278e-03 -1.52453019e-01  1.40425661e-01
  -1.09827136e-01 -9.14867599e-02  2.02898200e-01 -8.90053828e-03
   0.00000000e+00  2.27341800e-01  3.72236355e-01  9.12354633e-02
   0.00000000e+00  0.00000000e+00 -7.36620057e-02 -4.44251379e-02
   8.39938158e-03 -9.19302222e-02  3.12587766e-03 -5.12807709e-02
   1.27700302e-01 -1.70764725e-01  2.57469058e-01  2.01615411e-02
   3.91099784e-02 -1.33334907e-02 -6.60829768e-02  7.18899515e-02
   2.28466902e-02  5.21564003e-02  1.83219687e-02 -4.25444474e-02
   2.24946723e-02  4.27594110e-02 -8.15226096e-03  3.17702088e-02
  -1.28221280e-01 -7.45232074e-02 -3.22195876e-02  2.21802382e-03
  -9.22532340e-02  1.54822016e-01 -5.42711052e-02 -1.81923970e-02
   5.88548491e-02 -5.16443490e-03  4.42480495e-02  9.38891339e-02
   0.00000000e+00  4.80363670e-01 -5.90854367e-02 -1.88071728e-01
   5.08673202e-01  7.02428862e-02  2.27335700e-01 -3.77044758e-02
   2.08432629e-01  2.03736684e-01  2.25664181e-01  0.00000000e+00
  -2.17134143e-02  4.42099034e-02  1.04744560e-02  1.16876271e-01
  -9.09889348e-03 -3.02623002e-02  2.29090025e-02  4.68319347e-03
  -6.08310881e-02  3.49340200e-04  7.58555532e-03  5.53634875e-04
   0.00000000e+00  0.00000000e+00  0.00000000e+00  3.53632873e-01
   1.84575301e-01 -1.12023019e-01 -7.66921834e-04 -1.08907485e-02
   2.37321852e-01  4.22923862e-02  4.51972144e-02 -4.27023651e-01
  -5.57755411e-03 -3.49478352e-03 -4.34963290e-02  1.03479558e-01
  -8.89970820e-02  9.22286499e-02 -6.99091030e-03 -1.52452565e-02
  -2.18710110e-02 -1.11912187e-01  1.02209186e-01  6.84528754e-01
   9.63463737e-02  1.28082340e-01  1.25041199e-02  2.99874543e-01
   3.46126515e-03 -2.83111180e-02  1.03050231e-01  1.16709108e-01
   1.59596176e-02 -2.17675619e-01  3.32393258e-01  1.53860045e-02
  -3.07475251e-03 -1.21974710e-01  5.19637132e-03  0.00000000e+00
   6.94064409e-02 -3.12540099e-02 -1.27886243e+00  1.82205361e-01
  -6.35825080e-03  4.16681929e-02 -1.16053752e-01 -3.05398213e-04
  -5.08507428e-04 -7.09933256e-04 -1.00563664e+00 -3.16839927e-01
  -9.43759559e-01 -7.51282684e-03  3.71148350e-04 -7.95418654e-03]
 [-4.54824178e-02  3.74588425e-02  3.86032781e-01 -1.15242731e-01
  -2.71844809e-03  1.49303345e-01  1.94190690e-01  1.59215717e-01
  -5.05998128e-03  0.00000000e+00  1.70723816e-01  3.71102253e-02
   0.00000000e+00  6.00409725e-02 -9.78300728e-03 -5.92568406e-02
   5.55032688e-02  2.78908095e-02 -1.76091764e-01 -2.79359856e-01
   8.18261960e-02 -2.00959544e-02  1.79337681e-01  1.05289741e-02
   0.00000000e+00 -4.16058429e-02 -1.39417069e-01  1.84813488e-02
   0.00000000e+00  0.00000000e+00 -5.05998128e-03  4.19823432e-02
   7.38826898e-03 -6.61570407e-03  2.68133378e-03  5.24328713e-02
   6.92423934e-02 -1.62163936e-01  1.97859127e-01  1.00965062e-03
   2.48416913e-02  8.67625104e-02  3.76004492e-02  1.35973715e-02
   6.85220591e-03  7.31262790e-04 -1.68612049e-03 -5.54933195e-03
   1.67214691e-02 -3.79187508e-03  0.00000000e+00  6.38813088e-02
   4.24330765e-03  4.24519402e-02  1.62629324e-02  0.00000000e+00
   1.10901191e-02  5.94022704e-02 -8.11268298e-02  9.53851165e-02
   4.67953344e-02  2.98800836e-02 -9.09067434e-02  9.62197124e-03
   0.00000000e+00  2.06548588e-01 -6.73568021e-02  8.02701806e-02
   3.74879834e-01  2.94098785e-01 -5.82397953e-02 -8.55452438e-02
   8.88379796e-02  3.44921429e-01  1.49435605e-01  0.00000000e+00
   1.06337268e-01  0.00000000e+00  0.00000000e+00  8.05392664e-03
   5.41216288e-03  6.29430423e-03  1.79597330e-02  2.13095139e-03
   8.01773923e-02  0.00000000e+00  5.03359181e-03  2.47406873e-03
   0.00000000e+00  0.00000000e+00  0.00000000e+00  2.28657037e-01
  -2.11500433e-02  2.20143781e-02 -2.85391068e-03  5.32082224e-02
   9.90812932e-02  1.16534787e-01  4.49738587e-02  1.37965853e-01
   0.00000000e+00  8.80792548e-03  1.95008367e-02  5.54307828e-02
   1.36283792e-02 -1.18535184e-02  4.40157541e-02 -8.76034445e-02
   5.35730236e-02 -7.49383502e-02  1.75565101e-01  6.74420166e-01
   1.76792220e-01 -1.36681953e-01  8.17049860e-04  3.08976176e-03
  -7.33549732e-02  5.56089551e-03  4.49616860e-01 -4.94646805e-02
   2.59665122e-02  4.59188659e-02  2.36270313e-01  1.17382742e-02
   7.98217619e-02 -4.17503126e-02  0.00000000e+00  0.00000000e+00
   5.95611971e-02  0.00000000e+00 -2.07910355e+00  2.29459674e-02
   1.15829717e-02 -1.16372527e-01  1.12843132e-01  4.20366431e-03
  -7.44847726e-03  2.39933538e-02 -7.60182189e-01  9.10825606e-02
  -6.24910773e-01 -5.76808207e-02 -5.56034522e-02 -7.13406410e-02]
 [ 5.78502321e-02  1.96333034e-02  4.87378335e-01 -7.81935326e-02
   9.68788657e-03  2.03768795e-01  5.24472987e-01  1.25048855e-01
  -3.05185613e-01  0.00000000e+00  6.19539615e-02  3.73204752e-02
   1.74673756e-03  8.56728812e-02  1.15392053e-02  1.25001474e-02
  -5.83021001e-02  5.76879036e-02 -2.32000765e-01  5.54174953e-02
   2.23496343e-03 -5.21093667e-02  1.85254201e-01  1.01116614e-01
   0.00000000e+00 -9.61473869e-02 -9.92161308e-02  1.70694159e-01
   0.00000000e+00  0.00000000e+00 -3.05185613e-01  7.60299587e-03
  -8.77390364e-04  0.00000000e+00  2.43826614e-02 -2.16414175e-02
   1.50139566e-01 -1.97014318e-01  4.39492565e-01  6.41359024e-02
   1.34626751e-02  1.46431171e-01  2.44053746e-02  7.68798169e-02
   6.69542748e-04 -2.94527488e-03 -6.73040153e-02 -8.30812088e-03
  -1.16887251e-01  2.20897326e-02 -2.11792305e-03  1.29215778e-02
  -2.35463804e-02 -1.57763839e-01  7.19028669e-02 -5.92485866e-04
  -1.07725330e-01  8.13744897e-02  8.63135766e-02 -2.71936861e-02
   3.51432295e-02  2.21046846e-02  8.76163269e-03  5.36310138e-02
   0.00000000e+00  2.23245100e-01 -1.13709883e-01 -1.06502153e-01
   3.42647895e-01 -1.55398009e-01 -4.40607910e-02  1.03650002e-02
   2.89215352e-02  3.55330680e-01  1.53487809e-01  0.00000000e+00
   9.49334602e-02  0.00000000e+00  0.00000000e+00  1.45131483e-01
   5.30502448e-02 -1.91222307e-02 -1.73675898e-02  9.00167780e-05
   9.89382294e-02  2.59357892e-03  2.85140010e-02  0.00000000e+00
   0.00000000e+00  0.00000000e+00  0.00000000e+00  1.88868242e-01
  -5.02047136e-02 -6.73031876e-02  0.00000000e+00  7.92777070e-02
   7.42101023e-02  1.79047234e-01  4.96607986e-02  4.28719576e-02
   0.00000000e+00  7.42157442e-03  2.10984782e-02  6.89021518e-02
  -6.30554301e-02 -1.08660534e-01  1.77309297e-03 -5.30590808e-02
  -7.07942425e-02 -2.58441098e-02  8.01967690e-02  5.39849687e-01
   1.58144652e-01 -8.49408599e-02  1.63813241e-02  1.86674199e-01
  -2.92993052e-04  2.51939568e-03  1.65701709e-01  9.73410850e-03
   3.30041439e-02  6.54343850e-02  2.55600666e-01  3.06397899e-02
  -1.39541108e-02 -6.04946756e-02  0.00000000e+00  4.40206002e-03
   1.09239950e-01  5.22392969e-04 -1.61122880e+00  3.66704422e-01
   2.44378905e-02  5.84385623e-03  1.15636521e-01  3.32899151e-03
   6.43097704e-03  2.26608268e-02 -9.00613139e-01 -6.38812286e-02
  -8.48456896e-01 -5.45761571e-02  4.02159743e-02 -5.97866581e-02]
 [ 1.51500695e-01 -6.69530241e-02  6.66277271e-01 -7.96571498e-03
  -3.22376406e-02  2.51998926e-01  3.52291116e-01  8.63212957e-02
   7.81266537e-02  0.00000000e+00 -1.29069768e-02  2.40959451e-03
   2.71083020e-03  3.60736033e-03  1.85143401e-03  1.39512397e-02
   4.15129597e-02  8.21623855e-03 -4.16887074e-02  1.29967312e-01
  -8.26929711e-02  3.33211881e-02  2.58875091e-01  7.18895937e-03
   0.00000000e+00  3.52294307e-02  4.69066163e-02  5.97051204e-02
   0.00000000e+00  0.00000000e+00  7.81266537e-02  8.60389477e-03
  -9.13808805e-02  2.68487626e-03 -9.96030908e-05  4.98258535e-03
   1.14174755e-01 -1.16042976e-01  2.54238995e-01 -6.70366639e-02
  -1.60304955e-02 -8.51077790e-03 -3.59677842e-02  3.67642907e-02
  -7.11437973e-03  1.33894882e-02  1.70145472e-02  6.86547500e-03
  -8.18592963e-03  5.40859273e-02  1.28197743e-02  7.76708582e-03
   6.18516921e-03 -6.11956901e-02 -3.70983692e-02  8.00107492e-03
  -1.70587865e-01  1.59953650e-01  9.96635309e-03  2.34546394e-02
   1.46494546e-02  5.96700247e-03  9.01726915e-03  3.11117267e-02
   0.00000000e+00  2.80680294e-01  1.79682721e-01 -8.75587604e-02
   5.18647938e-01 -2.53172185e-02  1.43341630e-01  2.12784766e-02
   2.59753119e-01  2.40928464e-01  2.46777932e-01  0.00000000e+00
   8.23881723e-02  5.17886648e-04  3.62081602e-03 -4.16166890e-02
   1.83606530e-02  1.45912497e-02 -1.82059398e-02  6.20711937e-03
  -4.84199164e-02  0.00000000e+00  1.07159457e-02  0.00000000e+00
   0.00000000e+00  0.00000000e+00  0.00000000e+00  1.80977393e-01
   7.59267790e-02 -5.71968046e-03 -1.69297590e-05  2.31987498e-02
   2.23596112e-01  8.91922095e-02  3.11417721e-02 -2.37795156e-01
   0.00000000e+00 -6.16080616e-04 -1.45860419e-02  2.09896930e-01
  -1.69049146e-02 -8.89480122e-03  9.74272019e-04 -2.57865708e-02
   3.07423302e-02 -3.85228644e-02  9.03261039e-02  6.87718237e-01
   7.07355580e-02  1.00682154e-01 -5.98706675e-03  1.28549526e-02
   7.12496201e-03 -9.93011649e-03  7.35829464e-02  2.64932765e-02
   1.98170624e-02 -4.94383107e-03  2.59363060e-01  1.40755761e-02
  -2.69182609e-03  5.22462749e-03  0.00000000e+00  0.00000000e+00
   5.97259525e-02  0.00000000e+00 -1.18039644e+00  3.21914263e-01
   7.68990883e-03 -4.47016922e-02  4.36187474e-02 -2.39258789e-06
  -9.65758140e-06 -1.94397763e-05 -7.60332010e-01 -5.43755771e-02
  -7.89777692e-01  2.17858645e-03  7.92520499e-04  2.25354412e-03]
 [ 1.01798796e-01  2.27999498e-02  6.01524280e-01  7.74004377e-02
  -1.75787313e-01  3.56686034e-01  4.12865510e-01  9.75514791e-02
  -1.35126492e-01  0.00000000e+00  1.26088790e-01 -3.45975519e-03
   0.00000000e+00 -1.33575461e-01  9.03482094e-02 -1.31450731e-02
   1.17907396e-02  3.14267694e-02  6.42221686e-02  2.16546853e-01
  -1.28597094e-01  5.21545098e-02  8.92117900e-02  1.92735227e-02
   0.00000000e+00  7.79949890e-02  3.25161523e-03  5.93309881e-02
   0.00000000e+00  0.00000000e+00 -1.35126492e-01  1.25855853e-02
  -1.38158142e-03 -1.09097303e-02  0.00000000e+00 -2.21935046e-02
   5.71018793e-02 -2.29150625e-01  2.84890845e-01  8.68514885e-02
  -5.92788286e-02 -4.01202429e-02 -5.19969883e-02  6.56270212e-02
   5.85573443e-02 -9.20719786e-03 -2.99153195e-03  2.69991157e-02
  -5.50657502e-03  3.51334822e-02  8.04994982e-03 -1.09331258e-01
   9.25781557e-03  4.08008340e-02  5.62245040e-02 -3.61375227e-02
  -9.33976544e-02  6.89768617e-02  1.17265808e-02  1.37719773e-01
   8.04129555e-03  3.85157873e-03  1.62289523e-02 -1.27822052e-02
   0.00000000e+00  2.53124614e-01  5.28173940e-02 -7.39055760e-02
   4.68644747e-01 -7.81875029e-03  1.12419322e-01  8.21927070e-02
   1.64322236e-01  2.48352817e-01  2.37108771e-01  0.00000000e+00
   1.15430049e-01  0.00000000e+00  0.00000000e+00  5.51732339e-02
   3.72644872e-02 -7.72154516e-03  4.07921974e-02  1.44476613e-02
  -8.61969644e-02  0.00000000e+00  5.31413371e-02  0.00000000e+00
   0.00000000e+00  0.00000000e+00  0.00000000e+00  3.60240209e-01
   1.52622848e-01  3.10406259e-02 -7.14674061e-03  1.74231493e-01
   7.00240187e-02  1.79572019e-01  1.75338397e-02 -7.36778379e-02
   3.74563828e-02 -6.16889281e-03  6.40500551e-02  1.32001594e-01
  -4.99487065e-02  1.10222201e-01  1.19023144e-02 -3.38744077e-02
  -8.13284544e-02 -2.21852396e-01  2.40201575e-02  6.60854115e-01
   4.80300707e-02 -2.26476546e-01  1.09608213e-02 -8.16587799e-03
   6.76285203e-03  3.98560085e-02  2.67717802e-01 -5.56922197e-02
   3.51724757e-02  5.17490081e-02  4.31806423e-01 -1.22824648e-02
   1.52793550e-02 -9.23081991e-03  9.08918102e-04  0.00000000e+00
   9.91349976e-02  0.00000000e+00 -1.73765917e+00  6.14761881e-02
   2.25510501e-03 -1.12234257e-02 -6.21207119e-03 -2.06496656e-04
  -1.75252455e-03 -3.11680881e-03 -8.99740101e-01 -2.61799781e-02
  -8.22016299e-01  8.62520202e-04 -1.73127699e-03  2.14409969e-02]
 [ 2.04025326e-02  9.36287243e-02  5.39535743e-01 -1.74025007e-02
  -9.96532009e-02  1.87276155e-01  2.27235637e-01  7.45591271e-02
   5.56595616e-02  0.00000000e+00  4.68941206e-02 -8.56589344e-02
   0.00000000e+00  1.70090122e-02  2.36735786e-02 -1.23924533e-02
   6.57496583e-03  2.51273533e-02 -1.36630695e-01  1.26925951e-01
  -8.95914287e-03 -4.93495848e-02  9.05642644e-02  2.20279840e-02
   0.00000000e+00  4.52527112e-02 -1.81439732e-02  6.17542062e-02
   0.00000000e+00  0.00000000e+00  5.56595616e-02 -3.11253888e-02
  -6.55312283e-03  3.86093752e-03 -4.56237273e-04 -3.03571823e-03
   1.11743613e-01 -1.10353828e-01  1.87935650e-01  5.33571966e-02
   9.26088943e-02  1.99371929e-02  3.73900873e-02  6.25186601e-03
   7.32118337e-03  1.68758365e-02  7.57335314e-03 -8.12823381e-02
  -2.21879683e-02  1.98038459e-02  1.64225478e-02 -1.16222022e-03
  -1.79624600e-02  2.08828953e-03 -2.91497936e-02 -1.04007260e-01
  -5.46326781e-02  1.45060588e-01  3.39447089e-02  1.01309694e-02
   1.46891475e-02 -2.59070619e-02  1.43718445e-03  3.37845369e-02
   0.00000000e+00  2.11318010e-01  8.59976561e-02 -1.36174395e-01
   3.70957763e-01  3.96742957e-02  2.19318031e-01 -1.23585626e-01
   2.61145109e-01  1.70959875e-01  2.36211122e-01  0.00000000e+00
  -7.23553297e-03  9.02577808e-04  0.00000000e+00 -6.85553007e-02
   7.62487439e-03 -7.78914836e-03  1.85573620e-02  1.13041323e-02
  -1.01616744e-01 -4.00468340e-03  1.75206886e-02  0.00000000e+00
   0.00000000e+00  0.00000000e+00  0.00000000e+00  2.34836964e-01
   8.77997291e-02 -1.53199055e-02  0.00000000e+00  7.58428959e-03
   2.28626833e-01  1.41009299e-01  4.35483904e-02 -1.84294790e-01
   0.00000000e+00 -4.42694577e-03 -2.41515868e-02  1.10057280e-01
  -1.77654546e-02  6.80749798e-03  1.33407996e-02 -3.26807841e-03
  -7.11660280e-03  1.99824872e-02  4.35988898e-03  5.71581579e-01
   8.66273631e-02  3.65583694e-02  6.30931180e-02 -2.42953573e-02
  -1.14728984e-02  1.13408057e-02  2.01427771e-01  6.90486849e-02
   3.41786775e-02  3.66637867e-02  7.98097781e-02 -6.91745257e-04
   3.30571689e-02 -2.89872004e-03  0.00000000e+00 -2.10385409e-02
   1.16792449e-01  2.92471569e-03 -1.24629484e+00  1.97708483e-01
  -2.09326390e-03 -2.38689205e-02 -4.99958593e-02  5.70793638e-04
  -1.23133423e-03  3.44452429e-03 -8.77158032e-01 -6.33149907e-04
  -8.88839350e-01 -6.13925216e-03  1.38458402e-02 -2.42992466e-02]
 [ 1.61821978e-01 -3.07371353e-02  5.47324116e-01 -5.36083044e-02
  -2.02270953e-01  2.73326546e-01  3.38736958e-01  1.45224055e-01
   2.75092697e-02  0.00000000e+00  9.09824661e-02  3.41843453e-03
   0.00000000e+00 -1.63824378e-02 -1.63661746e-02 -9.66000585e-03
   5.56235352e-02  3.80759543e-02  4.85130562e-03 -1.56166037e-02
  -7.12913789e-02  5.78386054e-03  1.69216477e-01  3.31197805e-03
   0.00000000e+00  9.38454302e-02  1.53467835e-01  6.75521599e-02
   0.00000000e+00  0.00000000e+00  2.75092697e-02  1.03789633e-01
  -2.23105914e-03 -9.56852634e-02  6.04445076e-03 -1.71973048e-01
   1.14242954e-01 -1.70724244e-01  2.66539295e-01  8.06522714e-03
  -5.58019697e-02  1.20223322e-01  3.79773934e-02  3.42251064e-03
  -3.91472581e-02  2.21852759e-02 -8.88225630e-02 -1.47989784e-02
  -2.70065644e-02  3.34040546e-02  2.34151885e-02  2.99327905e-02
   2.27452837e-02 -1.84659395e-02  5.10894632e-03  0.00000000e+00
  -1.26225447e-01  9.86317177e-02  1.90563220e-02 -1.93176494e-03
   3.27999096e-02 -1.83005945e-03  4.92176955e-02  1.83169112e-02
   0.00000000e+00  2.70125997e-01  1.21219526e-01 -5.97231211e-02
   5.79337448e-01 -2.04486657e-02  6.45623573e-02 -9.09084425e-02
   2.71839623e-01  3.15654872e-01  2.88210776e-01  0.00000000e+00
  -7.57405490e-02  0.00000000e+00  1.24386610e-02  2.49880124e-02
  -6.32949083e-02 -1.74220466e-02 -3.81999412e-02 -2.47466199e-03
   3.02069422e-02  0.00000000e+00  3.11929262e-02  0.00000000e+00
   0.00000000e+00  0.00000000e+00  0.00000000e+00  3.42122187e-01
   1.18713769e-01  1.77303819e-02  0.00000000e+00  4.49941572e-02
   2.43216619e-01 -4.75403024e-02  1.06347281e-02 -3.98509626e-02
   0.00000000e+00 -1.34507868e-02  6.09704902e-02  1.39319771e-01
  -5.84745539e-02 -3.15890039e-03 -1.03424121e-02 -3.94479232e-02
  -1.66829637e-02 -3.72848507e-03  7.95497781e-02  6.84843875e-01
   8.40469332e-02  1.48684293e-01 -6.91717279e-04  5.86811392e-02
   7.34408023e-03 -1.11995029e-03  2.49729639e-01 -3.19199800e-02
   3.04631811e-02  7.03831610e-03  2.85352811e-01  7.09174841e-03
   1.97508453e-02 -9.38548598e-03  9.91296251e-03 -1.46578107e-03
   4.10878651e-02  0.00000000e+00 -1.53091697e+00  7.65434625e-02
  -1.04748296e-02  2.90572746e-03 -7.99211077e-02  3.63114317e-04
   3.63114317e-04  4.05099412e-03 -8.50066629e-01 -2.63085533e-02
  -6.93194879e-01  1.06425014e-02 -1.18513806e-02  1.43895238e-02]
 [ 7.65978074e-02 -4.27578258e-02  6.59078755e-01 -9.54713230e-03
   5.05081491e-02  3.02281767e-01  2.78335175e-01  7.80359665e-02
   1.30119053e-01  0.00000000e+00  1.45781002e-01 -3.15594897e-02
   7.49870014e-04 -1.58954855e-02 -3.00518681e-03 -8.85331763e-02
   1.08955079e-02  4.52464458e-03  4.35029165e-02  1.25957603e-01
  -1.43858967e-01 -4.80414096e-02  1.71209345e-01  2.92842353e-02
   0.00000000e+00  6.76770176e-02  1.13890746e-01  1.02087787e-01
   0.00000000e+00  0.00000000e+00  1.30119053e-01 -1.86521046e-01
  -5.94831972e-03  7.34844556e-03  1.53707382e-02 -3.79386762e-02
   3.08307398e-03  4.22291277e-02  2.80589345e-02  3.86364954e-02
   2.04911738e-02  7.17263693e-02  2.81468196e-02  3.06158152e-02
   2.66561488e-02  6.27112074e-03 -3.21663881e-02  5.85881308e-04
  -6.72012026e-03  7.01912009e-03  1.71257640e-02 -1.92922532e-02
  -3.47461579e-02  7.46986701e-02 -1.10079897e-01  5.46586791e-04
  -1.31225397e-01  2.46362837e-01  2.98148880e-02  3.06148860e-02
  -1.35964996e-02  3.50012136e-03  2.33988539e-02 -8.11685050e-05
   0.00000000e+00  2.40934080e-01  1.29041543e-02 -1.13035057e-01
   5.22419532e-01 -7.83422164e-02  4.07148905e-02  3.97740934e-02
   1.30900170e-01  3.24363585e-01  2.93734113e-01  0.00000000e+00
   8.32243838e-02  0.00000000e+00  4.01716231e-02 -8.70447692e-02
  -7.36559688e-02 -4.46914843e-03  1.73931496e-02  5.96732687e-03
  -2.96776675e-02  0.00000000e+00  2.39329898e-02  0.00000000e+00
   0.00000000e+00  0.00000000e+00  0.00000000e+00  2.21181827e-01
   4.90795785e-04  7.55006966e-04  5.87551797e-03 -1.12701915e-02
   2.99128787e-01  1.00968194e-01  2.51759411e-02 -1.37111817e-01
   0.00000000e+00  1.53707382e-02  3.98201649e-02  2.04422212e-01
  -8.84820144e-03 -4.35263660e-02 -5.14185219e-02 -2.66144379e-02
   9.02799302e-03 -7.20953537e-03  1.26694076e-01  6.75309881e-01
   4.80261172e-02  1.29501752e-01 -1.78455525e-02 -1.41315518e-02
   2.16789947e-02  3.61374370e-02  1.68203338e-01  3.92046113e-03
   8.64517288e-03  4.21668088e-02  2.53390935e-01  1.28122432e-02
   1.75533116e-02 -4.83228204e-03  0.00000000e+00  6.20384555e-03
   9.70835440e-02  0.00000000e+00 -1.43380660e+00  2.24184047e-01
   1.31053000e-02 -8.82603772e-02  1.25629418e-01  7.93119610e-04
   9.91399498e-04  8.17904586e-03 -9.39366310e-01  2.04853334e-02
  -1.02248401e+00 -2.58922413e-04  2.41793713e-03  1.92192217e-02]
 [ 2.52737281e+00 -2.65969754e-01  1.38575510e+00  2.61363620e-02
   5.75061232e-02  5.15836778e-01  3.59712178e-01  5.85127600e-01
   2.25714434e-01  0.00000000e+00 -1.37596456e-03 -1.20877112e-01
   2.17434511e-02 -1.57131016e-01 -4.83341465e-02 -4.56071026e-04
  -2.45034853e-02  6.64856541e-02  3.02908340e-01 -2.68911771e-02
   1.52076530e-02  2.91690707e-02  4.51171753e-02  2.45333546e-02
   0.00000000e+00 -4.42633360e-02  3.04009572e-01  8.89386114e-01
   0.00000000e+00  0.00000000e+00  2.25714434e-01  3.61427506e-01
   6.72885095e-02  1.28966597e-01  1.14381078e-02  1.41093333e-01
  -9.91377044e-02  1.31821012e-01  1.05161829e-01  3.99619635e-01
  -1.03952990e-02  2.83054846e-01  7.57368766e-02 -7.86234631e-02
   3.19990880e-01  4.97233505e-02  4.02518512e-03  1.22434294e-01
   6.55011888e-02  1.55723401e-01 -7.17686203e-02 -1.70039830e-01
  -1.09238576e-01  9.89971756e-02 -1.61762101e-01 -3.67728320e-02
  -1.06680920e+00 -5.30172366e-01 -9.80452545e-02  5.88116593e-01
  -1.56593489e-01 -8.70733435e-02 -1.95907273e-01 -5.18324860e-02
   0.00000000e+00  3.86516476e-01 -1.34225280e+00 -1.30932393e-01
   6.60486089e-01  4.41583286e-02 -1.33928660e-01  1.74815142e-01
   3.96032971e-01  3.88969450e-01  7.26573428e-01  0.00000000e+00
   5.63894666e-01  2.89134160e-02  7.71356135e-02  4.97374918e-02
   1.86526831e-01 -2.36116320e-01 -1.71265656e-01 -1.73460859e-01
   2.41694089e-02  1.75158926e-02  3.04905403e-01  7.26038916e-03
   1.11232081e-02 -4.93360014e-03  0.00000000e+00 -1.92263241e-01
  -2.04168603e-01  1.81743512e-01  4.41928090e-02  6.41641068e-01
   4.07395509e-02 -2.65893756e-02  2.61923378e-02 -3.95788134e-01
  -3.15500506e-03  2.87560541e-03 -3.08716064e-01 -2.40175516e-01
  -3.40466293e-01 -2.67114383e-01  3.40817627e-01  3.82230372e-01
  -9.39189527e-02 -9.19253347e-02  4.15689605e-01  5.06431189e-01
   2.10392531e-01  4.09165436e-01  2.24126028e-02  1.84327053e-02
  -8.07037272e-02  4.59853354e-02  8.29525855e-02  1.81366161e-01
   5.88423819e-02  2.42798222e-01 -3.71565114e-01 -1.41072573e-01
   2.64488660e-01 -2.46882206e-02  2.09773370e-03  4.80037020e-04
   3.39619644e-01  0.00000000e+00 -6.78292072e-01 -1.67313860e+00
  -1.44884402e-02  3.92535877e-02 -9.90400560e-02  7.84665251e-03
   1.73811904e-02  7.70504019e-02 -4.09667629e-01 -1.84973420e-02
  -2.84487150e-01 -1.21374192e-01 -1.53324715e-02 -1.25723259e-01]
 [ 4.89927026e-02  1.11603708e-02  5.32089400e-01 -7.60097149e-02
  -9.32965861e-02  1.10972531e-01  3.26708558e-01  1.53440917e-01
   8.71934054e-02  0.00000000e+00  9.79125723e-02  8.51285492e-02
  -1.28615496e-02 -1.62566145e-01 -1.48066226e-01  1.72374716e-02
  -1.45901468e-02  1.90447411e-02 -1.52786162e-01 -9.32834475e-02
  -1.36402858e-01  8.25940063e-02  1.44940016e-01 -1.19322333e-03
   0.00000000e+00 -7.48364548e-02  3.92779412e-02  2.12853204e-02
   0.00000000e+00  0.00000000e+00  8.71934054e-02 -4.94526164e-02
   1.78308934e-02  6.14021901e-03  0.00000000e+00 -2.00766982e-02
   9.76566328e-02 -9.72093183e-02  4.00274549e-01  4.12207802e-02
   5.11568000e-02  1.13360678e-01  6.07522085e-02  5.69803160e-02
   1.05600469e-02  0.00000000e+00  2.00076951e-02  1.81255739e-02
   0.00000000e+00  5.52158927e-03 -1.79338346e-02  2.23379277e-02
   1.80899824e-02  4.36633941e-02  7.92597558e-02  4.09525953e-03
  -7.59366841e-02  8.93690660e-02  2.68631202e-02 -7.74221842e-02
   3.79264162e-02  6.95192546e-03 -2.33156743e-02  1.34897813e-02
   0.00000000e+00  1.30075861e-01  1.61728620e-04 -1.35743953e-01
   4.78470207e-01  1.85925048e-02  3.96081427e-02 -2.68250400e-01
   2.51837868e-01  3.93135658e-01  3.01592285e-01  0.00000000e+00
  -9.86086338e-03  0.00000000e+00  2.31834192e-03 -2.69285302e-02
   1.48846725e-02 -5.77991356e-03 -1.92725415e-02  8.31386100e-03
  -3.80591967e-02  1.41881594e-02  9.33768251e-03  4.24785942e-03
   0.00000000e+00  0.00000000e+00  0.00000000e+00  3.79877004e-01
   1.44756397e-01  2.82929142e-03  1.02456635e-02  4.55471344e-02
   2.45799487e-01  4.53753569e-02  3.18521018e-02 -1.43703540e-02
   0.00000000e+00  5.81101906e-03  2.21162737e-02  6.05421660e-02
   2.12221230e-02 -3.82639698e-02 -1.73235284e-02 -2.51182944e-02
   5.05426737e-02  5.01819124e-02  1.25128236e-01  4.59348332e-01
  -3.69362924e-02  1.08201883e-01  2.62184748e-02 -1.46564916e-01
   4.62249123e-03  1.40406834e-02  1.99764984e-01  8.61356214e-03
  -6.40159812e-03  2.75925882e-02  3.61023451e-01  1.04278393e-03
   3.29894824e-02  1.23151605e-03  0.00000000e+00  0.00000000e+00
   8.32013335e-02  0.00000000e+00 -1.55981357e+00  9.85778097e-02
   4.16953196e-03  4.27211459e-03  1.34921324e-01  9.66646081e-04
   1.85273826e-03  1.07841454e-02 -8.92928061e-01 -9.69861830e-02
  -9.24803379e-01 -9.94746805e-03 -4.27130404e-03  1.42744950e-02]
 [ 8.28272068e-02 -1.89109953e-02  6.53159602e-01 -3.67391907e-03
   5.59966779e-02  2.47715595e-01  3.12228882e-01  8.80323378e-02
   1.23742553e-01  0.00000000e+00  1.03585032e-01 -7.32701836e-02
   0.00000000e+00  2.72380922e-02  1.66700579e-02  1.11221244e-02
   2.59637811e-02  2.10309124e-02 -9.33686091e-02  1.08736073e-01
  -5.05840238e-02  2.63403709e-02  1.06199916e-01 -1.14179592e-02
   0.00000000e+00 -6.60695194e-03  3.96104478e-02  1.73255029e-02
   0.00000000e+00  0.00000000e+00  1.23742553e-01 -4.82386665e-02
  -2.53259011e-02 -1.15489286e-03 -3.12039491e-03 -1.65622554e-02
   1.29083039e-01 -4.09331080e-02  1.06871508e-01  1.79510293e-02
   2.76257566e-02  5.82685554e-02  9.03613719e-02  1.99459207e-02
  -1.63234542e-02 -1.34506458e-03  4.28342147e-02 -2.41582724e-02
  -1.69352025e-02  1.26682552e-02 -1.30616185e-02 -9.54819111e-04
   6.11641364e-03  4.88575941e-02 -6.57819476e-02  9.64833832e-04
  -1.79083416e-01  1.73487046e-01 -1.40860007e-02  1.59315062e-02
   5.93973644e-03  5.07983763e-02  1.91531124e-02  1.96089766e-02
   0.00000000e+00  2.57286498e-01  1.80714604e-01 -1.65226498e-01
   4.90314991e-01  1.96216611e-02  2.18098035e-01  1.27866704e-01
   2.03397265e-01  1.88268549e-01  2.52186851e-01  0.00000000e+00
   3.18624044e-03  2.95057073e-03  5.70384101e-03  5.20061510e-02
  -3.57621028e-02 -5.87829870e-03 -5.54342932e-03  3.42028707e-03
  -4.79015510e-02  4.31209216e-04  1.96271311e-02  0.00000000e+00
   0.00000000e+00  0.00000000e+00  0.00000000e+00  1.72106932e-01
   4.03729192e-02  1.60027227e-03  0.00000000e+00  1.80806748e-02
   2.34106176e-01  7.84792987e-02 -1.56547454e-02 -1.35519580e-01
   0.00000000e+00 -4.32494109e-02  3.79222978e-02  1.15119339e-01
   4.21221902e-03 -7.18364122e-03 -1.78290885e-02  2.25675090e-02
   1.75372562e-02 -3.38104176e-02  8.57926464e-02  6.65058196e-01
   5.93109555e-02  9.70263459e-02 -2.05341151e-02  7.13866308e-02
  -2.20769203e-02  8.39449433e-03  1.21862967e-01  1.56130705e-02
   6.85026329e-02  1.74654448e-02  1.59465444e-01  8.32799324e-03
   3.28076352e-02 -8.60637340e-03  0.00000000e+00  6.75117122e-03
   6.97674538e-02  0.00000000e+00 -1.14569436e+00  1.78033078e-01
   3.03050153e-03 -5.96731603e-03  1.31090924e-01  7.83613448e-05
   9.30485748e-04  3.79405712e-04 -7.46103792e-01  1.65278776e-02
  -7.55078097e-01  2.10147902e-03  6.60864025e-03 -4.42873899e-03]]